97 200
evaluated_paper -0.14251153 0.5173821 -0.26236275 -0.0010644847 -0.32710895 -0.012106544 -0.09753749 -1.0157578 1.1952407 -0.655746 -0.40944305 -0.38962704 -0.17029078 -0.18560031 0.4459149 1.1389766 -0.12513226 -0.8790604 0.4280784 0.016030552 0.83472157 0.4168623 -0.3771378 -0.16326728 0.6890647 -0.3954029 -0.14558019 0.26883566 -0.12762387 0.9837865 -0.32150647 -0.77131355 0.61704606 -0.3250574 0.60714436 0.038011026 -0.346282 0.22691967 0.83025557 -0.75544435 0.057292137 0.60503435 0.7941631 -0.4039917 -0.6397277 -0.24504693 -1.0279375 0.0077441386 -0.13175893 0.35838047 -0.42491847 0.06569917 0.24660951 0.9964701 0.36579227 -0.12368996 0.11731514 0.02552887 -0.11285862 0.20820437 0.95911974 -0.16099972 -0.35523543 0.026823897 -0.13163364 0.07261256 0.7503024 -0.43249178 0.06449952 0.21276122 0.70839524 0.04826353 1.1572173 -0.24412577 0.43478653 0.8817953 -0.34210643 -0.14849178 0.49613377 1.3521235 1.148923 0.39576766 0.52652735 -0.22403727 -1.9576988 0.5738632 -0.441672 0.13710515 -0.56290364 0.5200429 0.85000587 -1.1754854 -0.03919411 -0.8161655 -0.81753796 0.67764544 -0.3648926 0.4451484 1.6526461 1.2106688 0.17132564 1.1477323 0.3784695 -0.046669643 -0.03243773 0.11220394 -0.9902415 0.66001433 -0.057925656 0.07805205 0.49677235 -0.578164 -1.1959581 -0.0027805762 0.18501839 -0.46909687 -0.33709335 0.85797834 -0.602738 0.8466206 0.08589681 0.3032556 0.13093022 -0.6666639 0.082436 -0.86944836 -0.5383846 -0.948994 -1.2113686 -1.2248826 -0.009011061 -0.7738504 0.8976246 0.027827347 -0.1705373 0.41641694 0.15111426 -0.8531373 0.4197187 0.22271101 0.41486856 -0.71901464 0.41954932 -0.4128831 -1.341361 -0.15324748 0.6581765 1.2773348 -0.2643411 0.47742343 -0.074971646 0.32854542 0.14412636 0.19655561 1.2464647 -0.34114763 0.41888723 0.19322811 -0.4866447 -0.00472678 -0.5351075 -0.342896 -0.40252385 0.27626935 0.8722882 -0.843879 -0.07042015 0.17359592 0.32036856 -0.22703072 0.5689661 -1.0978353 0.122610405 0.09676283 0.08175824 -0.8482592 0.084199026 -0.07447105 0.1043635 0.53665984 -0.8656957 -0.008687273 -0.49751168 -0.5509384 -0.37546962 -0.15016906 -0.67523915 1.208547 0.054984722 0.09808264 -0.44518277 -1.0803481 -0.17526805 -0.42261723 0.2903996 -0.18258405 -0.29512537 -0.22070244 -0.33905983 0.50951374
paper -0.4573733 0.35014185 0.30938873 -0.7064156 -0.8878597 0.10866906 0.0670681 0.023198148 0.5037302 -0.64293915 -0.29000962 0.15338044 0.33228853 0.552941 -0.3743385 0.70622694 -0.65283203 -0.3934407 0.30580306 -0.4115044 -0.37773943 -0.06561521 1.4510533 0.34495506 0.032358836 0.15373097 0.2778065 -0.10289344 0.051289756 -0.39158228 0.0469915 -0.3158865 0.6510864 0.5012346 0.017327236 -0.64174 0.33265695 0.13030577 -0.2587262 0.14837803 0.29149657 -1.0270857 0.0115768025 1.0299824 0.96515864 -0.73391944 -0.40435314 0.030297976 -0.18638262 -0.14426894 -0.1671407 0.38111824 1.0464876 -0.8879442 0.5081285 -0.44141746 0.15354149 -0.37902117 -0.9124739 1.1155576 -0.12492603 0.40302336 0.19890562 0.008786105 1.3346981 0.15470092 0.3012325 -0.634538 -0.42706934 0.52720785 -0.474891 -0.23672229 0.90291494 0.51954657 0.00798396 0.50520194 -0.2509145 0.3568653 0.6564525 -0.2228483 -0.19401556 -0.748667 -0.4519465 0.47783527 -1.564051 -0.5930915 0.6596108 -1.2584711 -0.11577056 0.18175468 0.24177349 -0.3978868 -0.071619354 0.6533939 -0.22170997 1.1336173 0.30384824 -0.004761385 0.122192964 0.91162914 0.09740904 -0.116094165 -0.23879969 -0.8202585 -0.55961084 1.1744397 -0.2630465 0.49084687 0.016959347 0.5159104 -1.0161381 0.12282182 -0.2738462 -0.6345477 -0.1060572 0.14803764 0.29074082 -0.33874336 -0.31978136 -0.107464224 -0.8050183 0.1474159 -0.8160481 -0.4586916 0.16091685 0.35558027 -0.8694516 -0.9704325 0.66333014 -1.1154109 -0.58899134 1.30639 1.528318 -0.82605547 0.39629003 -0.09788786 0.86274093 0.52752346 -0.10322899 -1.4599942 -0.6693786 0.66937625 0.3528396 -0.045725767 -0.5128635 0.7255515 -0.43055272 0.17914699 0.2631194 0.16212752 1.1858245 0.8798195 -0.10981084 -0.47503963 -0.056570254 0.7594091 -0.90165687 -0.018498918 -0.09651218 0.3808118 -1.1484171 -0.21430932 -0.09098243 -0.30323157 1.5597821 0.08761514 0.42691535 -0.035882715 -0.46989954 1.3185924 0.002651333 -1.065575 0.51953095 0.7946452 -0.32242402 -0.7876673 -0.4578876 0.4796376 -0.470873 -0.2007277 1.2301104 -0.25276434 -0.56680834 -0.6850542 0.424717 0.4024521 -0.10880029 0.84635127 0.44949514 -0.43166915 -0.5322172 -0.011820073 -0.4349282 0.34619102 0.0011414156 -0.5014437 0.25957268 -0.027250512 -0.8505373 0.21847682
conference_participant -0.1780698 -0.6518505 -0.17871633 -0.57026434 0.058798254 -0.6795557 -0.42865118 0.25563142 -0.14741635 -0.52448 -0.4358117 0.9767104 -0.9404834 0.19762613 -0.14463481 -0.54105467 0.024211347 -0.7343637 0.35641897 -0.18540478 -0.4616575 0.22793213 0.50715476 -0.4680112 -0.30437586 0.015995957 0.43605182 0.047715582 0.0016848217 0.5867489 0.71797866 0.15432668 -1.7166175 -0.003984232 -0.58811396 -0.3398894 -0.5117043 -0.37394127 -0.12950085 0.19220392 -0.8100654 0.33693805 0.24354853 -1.1775628 0.4471983 0.09088298 -0.69946253 -1.1337835 -0.81985444 -0.38278142 -0.44906127 1.2296087 -0.57931226 -0.19053422 -0.91133153 -0.1774702 0.024887692 0.09770856 0.020778907 -0.9122328 0.44635946 1.2093672 0.19560935 0.22882485 -1.2796074 -0.42560723 -0.30296236 -0.24622892 -0.5889432 -0.4028512 -0.6067242 0.29329428 0.7989723 -0.6575958 -0.71773106 -0.79826236 0.7966541 -0.8184844 0.9433224 0.5047988 -0.36357597 -0.039528955 0.8627621 0.4038053 0.62382597 0.08914742 -0.43943623 0.0062715895 -0.7737299 -0.7555339 -0.13227233 -0.2638701 -0.73405594 -0.45753697 0.8470005 0.19318238 -0.5793193 0.14811808 0.12754731 -0.15596916 0.5472509 0.30090076 0.19344482 0.676221 0.12534215 -0.17477281 -0.7821776 -0.827 0.36554384 0.5813753 -0.33639562 -0.23404376 -0.3556451 0.098929554 -0.4004017 0.2875495 -0.1876944 0.6779868 -0.9928613 -0.596103 -0.3682079 -0.9288007 -0.21135728 -0.1996957 0.2841915 -0.24289364 0.39005858 -0.02741667 0.39870873 0.14167443 0.90610504 0.66222495 -0.05682483 -0.05441858 0.09059371 0.56056833 -0.1303969 0.284028 0.05986493 -0.581207 -0.21141274 -0.60834664 -0.39294547 0.108734764 0.0035947282 -0.60220087 -0.07907188 0.19689897 0.19288649 0.23634277 0.039928313 -0.6705177 -0.37022042 -0.25820795 0.19488987 0.18035433 -0.0726776 -1.0712905 0.026882984 -0.49836257 0.5283708 0.5563306 0.21739012 -0.032018926 -0.123150446 -0.3683827 0.17028794 -0.2544541 0.20249939 0.36751547 -0.24610949 0.2876546 -0.7493561 -0.7184647 0.05629192 0.071812205 0.2001807 -0.47936186 -0.3113112 -0.104871765 -0.50191045 -0.5274259 -0.118177876 0.10676584 -0.4069489 -0.741778 0.7367478 0.4271402 -0.050071485 -0.76458454 0.28392673 -0.60313374 0.9178591 -0.2750936 0.09398888 0.12792076 0.26722857 -0.33311677 1.0786325 -0.21889566
rejected_paper -1.0039734 -0.032550495 -1.3786227 0.19819579 -0.5709934 0.018208439 -0.16151337 -0.84100205 1.4106748 -0.9000994 -0.1870056 -0.6403135 0.12088482 -0.6014011 0.94636446 0.96654606 -0.2398652 -0.3718301 0.74816287 0.06118329 0.87402487 0.16755849 -0.8524179 0.10139366 0.81934655 -0.41865075 -0.5287455 0.06086138 0.07968348 1.1925154 -0.4700876 -0.7056396 0.6402365 -0.7146867 0.33109045 -0.12652095 -0.555921 0.09660401 0.9212127 -0.45696044 0.062229995 0.6801535 0.7455921 -0.25396153 -0.23097731 0.26500225 -1.0927172 0.33230096 -0.32118475 0.33735836 -0.34721062 0.23457702 0.055549588 1.3465757 -0.028022615 -0.38914376 -0.1744616 -0.42964876 -0.2997399 0.47669277 0.90715414 -0.0616223 -0.1227271 0.32298148 -0.11476792 0.3234397 0.6842561 -0.6179593 -0.09421104 0.68859464 0.55532277 0.08611192 1.0447687 0.34811473 0.32756153 0.45549566 -0.18235038 -0.007812474 0.26909098 0.7391281 0.96180826 0.38498008 0.20248187 -0.120656624 -1.942693 0.6092746 -0.5564834 0.054288916 -0.6403124 0.27426866 0.97321624 -0.85098046 -0.30664685 -0.55841386 -0.81671023 0.38884327 -0.97923183 0.5875568 1.3824683 1.1010246 0.4640635 1.3603581 0.3705652 0.30257422 -0.32814223 -0.2083359 -1.0473083 0.5825757 0.50680673 -0.4326017 0.73935837 -0.29604465 -0.96881616 0.20687445 0.660578 -0.2984867 -0.5512006 0.6223465 -0.24420707 1.0605054 0.47919667 0.452573 -0.038087495 -1.0226734 0.34665042 -0.63340193 -0.22107065 -0.51454014 -0.9604453 -0.6585323 0.29036415 -0.60871905 0.42939296 -0.02846018 -0.42480472 0.24428041 0.052039098 -0.28484148 0.019625584 -0.20875666 0.52883905 -0.30784962 -0.08997134 -0.25125447 -1.0832447 0.122064464 0.5650453 0.639245 -0.06574438 0.109017864 0.055028267 -0.27761218 -0.42060035 0.3764888 0.45906523 -0.35827374 0.986751 0.24214357 -0.5335772 -0.0027446433 -0.32509843 -0.36014366 -0.49314693 0.07000743 0.7107408 -0.63760024 0.24278045 -0.07561572 0.32914582 -0.4385092 0.57864016 -1.1319337 0.5081465 0.13668701 0.041528013 -0.6533677 -0.041846003 -0.30198246 0.12691705 0.7537471 -0.8587738 -0.112938635 -0.4210258 -0.5957342 -0.98312455 -0.06146785 -1.0215912 1.0679268 -0.20192692 0.4010223 -0.26865274 -1.3215197 -0.45198733 -0.31967503 0.28580582 -0.48607782 -0.38183433 -0.34619856 -0.20660736 0.18047091
accepted_paper -1.0508046 -0.060046546 -1.3129393 0.250224 -0.7335942 -0.013726539 -0.10916914 -0.87874454 1.4268804 -0.96177304 -0.19719777 -0.63026327 -0.0044036675 -0.79869217 0.8774119 1.1155816 -0.23758799 -0.23561484 0.6856432 0.11978956 0.91760606 0.14331609 -1.0394166 0.07618527 0.910671 -0.35947105 -0.5284979 0.12929703 0.018958833 1.1549715 -0.38319287 -0.7064571 0.70821697 -0.71565133 0.19985972 -0.102486424 -0.6164382 0.103633314 0.84563434 -0.3365842 -0.083571285 0.5540595 0.6223772 -0.00020839693 -0.25674206 0.31623107 -0.911781 0.40775254 -0.3913425 0.33079192 -0.24144197 0.24097921 0.1537611 1.4134345 0.08759653 -0.38247693 -0.24251705 -0.34709233 -0.18901433 0.5417828 0.9313858 0.06560592 0.0056565986 0.26805708 -0.07196127 0.31587878 0.67376095 -0.6328945 -0.20362131 0.66694343 0.48796314 -0.07272613 1.0033245 0.4520385 0.3294108 0.38384447 -0.048819955 0.031107485 0.43811902 0.6872418 1.0259134 0.425651 0.28045946 -0.12114207 -1.8130678 0.53064305 -0.43474418 -0.00613543 -0.7260041 0.2319548 0.85556775 -0.7366291 -0.34877643 -0.41915867 -0.7643829 0.36410275 -0.93684435 0.5533475 1.4035447 1.1400956 0.40520757 1.3477211 0.40881416 0.33936033 -0.30436885 -0.14964435 -1.098559 0.562305 0.52154326 -0.3862535 0.6965105 -0.14829169 -0.9392291 0.133102 0.7083596 -0.37761098 -0.4947033 0.6845502 -0.30633524 1.0582556 0.45715147 0.64193857 -0.09877315 -1.0457133 0.39846978 -0.53290254 -0.25330344 -0.5439262 -0.9969499 -0.64981437 0.20465085 -0.70309764 0.3199916 0.029064242 -0.47287267 0.31154016 -0.121505104 -0.22945763 -0.0038327381 -0.12541184 0.48990735 -0.41004562 0.021085165 -0.27948564 -0.9016214 0.20762713 0.5894018 0.6345023 -0.12981409 0.08694536 -0.012046836 -0.22484387 -0.32792604 0.45025158 0.33745345 -0.36517432 0.8826696 0.26008528 -0.5981908 0.042562783 -0.24334958 -0.34581533 -0.49514407 0.017207943 0.71784866 -0.63283384 0.29912677 0.012036148 0.346871 -0.4724238 0.4997184 -1.117739 0.48553202 0.11214679 -0.08229586 -0.49157172 0.08653248 -0.27302155 0.11395677 0.8541602 -0.799653 0.038199537 -0.43235102 -0.59249663 -1.0471007 0.074512035 -0.95752645 0.9892808 -0.16738665 0.40907502 -0.28444627 -1.1102804 -0.48217097 -0.32131064 0.21955028 -0.44244933 -0.36491993 -0.3008303 -0.07004512 0.18861565
review -0.33978623 -0.530159 0.46532568 -0.25846097 0.6053037 -0.8633807 -0.20080158 0.8308619 0.42474616 -0.48413238 0.7154552 0.45159337 0.5647698 1.6178392 0.1142604 -1.0015154 0.8622709 0.050535563 -0.9105517 -1.2452662 1.1014336 0.71961784 1.2777476 1.0169567 -0.3453087 -0.56810725 -0.57710624 0.6987569 1.5409293 0.08735614 0.30593148 0.03450206 -0.13671958 1.4554051 0.520765 -1.2655404 0.33051294 -0.99852765 -1.4979649 0.94149905 0.61916906 -1.1951021 -0.17503262 0.95563877 0.3955794 -0.05690278 -0.018509319 -0.05373682 0.99045587 -0.10685603 -0.010741917 0.4615052 -0.42848104 -0.49402925 -0.06646061 0.1426525 -0.23199342 -0.3200839 -1.7036264 -0.4314102 -0.62302434 -0.8692736 -0.97223383 0.28197032 0.11428803 0.607025 -0.74654406 -0.23141623 -0.09525434 0.017776223 -0.25161535 0.37173292 -0.4078489 0.22078788 -0.898881 0.34002486 0.16233483 0.76305926 0.62153435 -0.08184394 -0.025614966 -1.1592858 -0.039236713 -0.1069856 -0.047843874 -0.025588715 0.22328903 0.34230426 -0.13979828 0.05494886 0.7405299 -0.33213323 0.65731466 0.055748634 1.178312 0.7762938 0.5981904 -0.5275208 -0.16529968 0.52581954 0.85567605 0.6705459 -1.0632676 -0.34495735 -0.8742993 -0.20497541 0.43020922 0.30364418 -0.019567594 0.0062658894 0.83375376 0.09306734 0.010745237 0.6958124 -0.29477903 0.4362735 0.6358275 0.36573824 0.34559876 -0.40824395 -0.38619137 -0.22609794 0.1858174 0.31183454 0.5547923 -0.19104396 -0.16626643 0.14405245 1.385768 -0.90181154 -0.6530326 0.4937693 -0.2932924 -1.5521888 1.1034883 -0.7457569 -0.026661761 0.36850855 -1.285478 -0.09829896 -0.15939298 0.47565892 -0.7457505 0.4498694 -0.75141174 -0.103695326 -0.7442096 -0.52344745 0.6590305 -0.27595857 -0.011254842 0.99677795 -0.39811024 0.43038484 -0.055819467 -0.81445783 -0.19237188 -1.1947163 0.61171246 -0.40831497 -1.4525746 0.16372733 -0.3662555 0.21449097 0.9006165 0.634192 -0.16267969 0.78115404 -1.0894873 1.1072348 0.06636693 -0.85927147 -0.26785582 0.17192286 -0.022055468 -0.5061981 -0.21070082 0.4561782 0.038359664 -0.5785764 -0.075567074 -0.30399895 -0.8827582 0.04837607 1.2738951 -0.36738172 0.25817668 0.58827883 -0.51854783 -0.88174915 -0.53680956 0.41362524 0.32976282 -0.32231554 0.14041992 -0.40574428 0.16192047 -0.042553 -0.85794383 0.122085415
industrial_session -0.4031098 0.23304999 0.7528281 0.18271156 0.6338401 -0.22231685 -0.043821402 0.52626115 -0.04630098 1.2377347 0.4991778 0.4484118 -0.48011228 1.1341726 -0.6148848 -0.8929318 0.4778879 0.86849564 0.3699469 -0.07868115 -0.14071678 0.5450556 0.062031597 0.06682329 -0.17803805 0.16716993 -0.45302805 -0.20416057 -0.51759803 -0.24377719 -0.78384185 -0.37584943 0.43495867 0.14467864 -0.3636893 0.25100052 0.04869502 -0.5510217 -0.33985108 -0.15971713 0.8899586 0.9102593 0.5350246 -0.6443027 0.6829541 -0.032973938 0.083582304 -0.14752853 1.099299 0.15986346 0.16980225 0.40035686 0.59941196 -0.0845835 -1.3678503 -0.92520106 -0.6873763 -0.14491959 -0.4931966 -0.07452483 -1.1007532 0.22805086 -0.765095 -0.82252616 -0.28889927 0.04870759 -0.46026614 -0.045408987 -0.6189131 0.9412442 0.18008009 -0.11434761 -0.20599389 0.67010206 -0.8031731 0.2527614 -1.1397152 0.2632978 0.07504409 -0.31625357 0.4627782 0.19166589 -0.10755559 0.5695521 1.1904864 -0.5115899 -0.87971437 0.92844415 -0.41378215 -0.092100255 -0.0383332 -0.17756122 -0.6503283 0.95731074 0.4459139 -0.30346408 0.07819772 0.4432665 -0.76017064 -0.516956 0.5705236 -0.93924105 0.51137024 0.3449114 0.81391674 -0.39473444 0.892995 -0.43524203 0.14148569 0.08598057 -0.31518996 0.37097016 -0.1916689 0.9387126 1.0843554 -0.0063428944 0.3521474 -0.815241 -0.11207574 -0.17408293 0.16065319 -0.4005581 -0.7198423 -0.20589304 -0.31281155 1.8596921 -0.92685366 0.8569119 0.3960787 -0.6014739 0.7229942 -0.30957606 -0.9929063 1.190995 0.7069402 0.73445946 0.47856095 -0.23569442 -0.28140357 0.60573053 0.6133259 -0.5782472 0.46806374 0.20219302 0.252162 0.38305607 -0.35729095 0.55489826 0.20163952 -0.48576632 -0.8284659 0.18864614 -0.007106231 -0.006474321 0.4091299 -0.12334716 -0.5423532 0.2547244 0.4234424 -0.42212623 0.22653547 -0.0004106614 -0.51306224 0.010765281 -0.62905926 1.264942 -0.36123335 0.8002271 0.69019103 -0.5671446 -0.0127767725 1.4238362 -0.19394764 -0.0841573 -0.009694209 -0.18445498 -0.5687102 -0.14417396 0.027162736 0.21647382 0.20143747 0.8630331 0.16147307 -0.5193985 -0.06181034 0.06788386 0.07349537 0.041160133 0.5222939 -0.20651531 -0.5969161 -0.0042256997 0.013548973 -0.28051576 -0.36623666 -0.21786186 -0.22964214 -0.62898904 -0.59334826 0.41133878
session -0.50399774 -1.4566162 0.673491 -0.20110129 0.12227632 -0.20012888 -0.72382617 -0.0030514095 -0.0038026676 0.7098547 0.32124218 -0.40040708 -0.80411667 0.1064362 -0.02095642 0.086372316 -0.09053256 -0.07772154 0.6793579 0.3789458 -0.023491373 0.06795764 0.24030913 0.385051 0.43049565 0.27880114 -0.77364564 -0.40845424 -0.6761506 -0.15818156 -0.7854015 -1.1086603 0.46456945 0.13582212 -0.21993338 -0.09729226 0.4361589 -0.2686259 0.63296133 -0.105204694 0.35414055 0.56625074 0.42418325 -0.24720988 0.3945208 -0.08650466 -0.18093261 -0.26192248 0.1630418 0.14313556 -0.35007766 0.4751945 0.45333326 -0.48502937 -1.4200652 -0.18989041 -0.28498566 -0.5326898 0.17971715 0.5467868 -0.54938394 0.5138561 -0.78859943 -0.6815715 0.43809873 0.30346137 -0.623444 -0.24659471 -0.22071017 0.86100554 0.606639 -0.48475194 0.01782087 1.1456722 -0.14187339 0.53276575 -1.2748802 1.0751327 -0.28280306 0.2690445 -0.034767423 0.6512181 0.04610458 0.63185006 -0.12641302 -0.015998509 -0.38485053 0.9125169 -0.15400295 -0.5179829 0.45505637 0.39724913 -0.15177034 0.6435539 0.2524471 -0.0030767045 -0.5048875 -0.3936802 0.44640988 -0.56060654 0.3074077 -0.32733178 -0.104093656 0.26837882 0.9176215 -0.029394472 0.5613618 0.8800723 -0.035264835 0.19715181 -0.2938892 0.36299855 -0.029075526 -0.6154908 0.82080096 0.30792648 -0.18492816 -1.379818 -0.5105565 -0.35603544 0.44787538 -0.550948 -0.20902902 -0.33035418 -0.29089886 0.6632241 -0.5219232 0.56505954 -0.39798656 0.17075518 0.8003513 0.089997016 -1.485797 0.16073386 -0.5575737 0.91158766 0.7283712 -1.0371879 0.34650385 0.07084778 0.85647917 -1.1513748 0.07322211 0.6633184 -0.20850421 1.031977 -0.13448218 0.37750652 0.1797149 -0.66318756 -0.74709904 -0.6436728 0.2527532 -0.030504046 0.38226745 0.39083812 -0.81746525 -0.45755434 0.26780486 0.19108444 -0.05924572 -0.5677112 -0.43790174 0.4923114 -1.0729821 1.3458407 0.4169798 1.6759981 0.4501795 0.06223979 -0.12611268 1.1026908 0.5214571 -0.14731833 -0.15372363 0.03838389 -0.55702835 -0.48717332 0.21193339 0.9731978 0.25796115 0.96999586 0.3644356 0.31891087 -0.24421395 -0.16214201 0.29716694 0.88141 0.8544721 0.39144227 -1.1715145 -0.042047054 -0.6510312 -0.41725156 -0.28719214 -1.4879373 -0.7227858 0.03219752 -1.019171 0.55163187
conference_session 0.21562351 0.048081722 0.3741761 0.13084747 0.49860793 -0.4634185 -0.18170148 0.08886481 -0.5596483 1.0819556 0.1302155 -0.2824839 -0.43170977 0.7941415 -0.5427669 -0.2613741 0.26273918 0.65720487 0.2993451 0.015376112 -0.59951794 0.2374275 0.24233566 0.47128528 -0.10414908 0.4313706 -0.30113575 -0.54986584 -0.3990185 -0.16422316 -0.4255025 -0.54987556 0.5176845 0.22803584 -0.70322466 0.28961453 0.09985165 -0.4475155 0.1721382 -0.3313249 0.82079625 0.7664393 0.062886834 -0.39361632 0.524146 0.1462352 -0.061499674 -0.052893728 0.6967288 0.17268755 0.27798834 0.30902112 0.346301 -0.0112091405 -1.0804718 -0.59128106 -0.4129996 -0.41343978 -0.12406725 -0.10132805 -0.7983805 0.061715614 -0.53169787 -0.63939035 -0.2357002 0.10702578 -0.49639836 -0.37801045 -0.21720362 0.8577231 -0.112951875 -0.44273788 -0.18991509 0.65282065 -0.6077227 0.24230422 -1.0052445 0.44870576 -0.3226984 -0.4706999 0.21726039 0.17376022 -0.46714702 0.3744011 1.1524713 -0.51312923 -0.6057969 0.9579314 -0.07959128 -0.40825787 0.27866593 0.5159457 -0.41415325 1.0278316 0.38676512 -0.37373084 -0.39109224 -0.095305175 -0.3847423 -0.43550038 0.449646 -0.9951104 0.32806715 0.27403766 0.93376434 -0.16221766 0.58859587 0.07323398 0.2502289 0.0010562178 -0.17773733 0.45270196 -0.057039235 0.33125594 0.9186212 0.4047224 0.47888723 -1.0397754 0.65346825 -0.22949927 0.18382777 -0.45255318 -0.55227274 0.018690024 -0.07085008 1.6969163 -0.8538345 0.55435777 0.186008 -0.6202668 0.7291652 -0.22411855 -1.0213315 1.5805576 0.5901917 1.3409506 0.6713147 -0.3427073 -0.6445685 1.002377 0.28604847 -1.0492907 0.31295735 0.755955 0.37345588 0.28356326 -0.67785573 0.6693882 0.52034473 -0.43136197 -1.4494184 0.60368764 0.4184774 -0.39698157 0.4165814 0.25296164 -0.12487204 0.58928514 0.6444641 -0.47394806 0.49718353 0.22475831 -0.58802587 -0.44626474 -0.9046936 1.2206734 -0.27808937 0.53681254 0.78491235 -0.31990248 -0.4134981 1.3543437 -0.04347717 -0.06528459 0.13549 -0.2209651 -0.43164608 -0.36216223 0.28913355 0.099368736 0.2277292 0.6129048 0.17858905 -0.28974795 0.220823 0.4628697 0.23948194 0.08504973 0.77642405 -0.118182935 -0.28235608 -0.2292879 -0.17479011 -0.1563489 -0.45525166 -0.3296598 -0.23763965 -0.82315105 -0.273592 0.39829332
individual_presentation 0.170624 0.3079189 -0.06384079 0.70496684 0.53674984 0.362697 -0.769858 -0.45771202 -1.0402653 0.6740221 0.8529125 -1.47989 -0.52703464 -0.37693006 0.48809636 0.45077866 -0.75245583 -0.31912613 0.17815055 1.1304963 -0.30111068 -0.7535468 0.3899559 0.36561644 0.13685594 1.0943843 0.14712247 -0.45735222 -0.5817141 0.068609245 -1.0069598 -0.13509485 0.39082828 0.77693635 -0.06528441 0.12203138 0.72798526 0.2767991 0.94298947 -0.5981325 0.35167223 0.44272667 -0.8807211 0.6013124 0.8463565 -0.4627622 -0.14695245 -0.49788392 0.35413307 0.2351547 -0.3813348 0.42657554 -1.1400602 -1.114926 -1.7456576 0.03439392 0.22748505 0.057483077 0.70677656 -0.31371257 -0.64713454 0.45725584 0.61157537 0.015912602 0.25896165 -1.1045573 -0.8762518 -0.14560032 -0.38474563 0.31575313 0.031161405 -0.14804943 -0.27143317 0.12874891 0.04804583 1.0806131 -0.86352247 1.2637029 0.21663557 -0.32572138 -1.1072631 -0.0959936 -0.030682854 -0.16607273 -1.0908958 -0.49856213 -0.48815495 -0.053839613 0.5275481 -0.2651881 0.43676406 0.2335492 -0.53680867 0.5568475 0.1017561 -0.041261606 -0.39389294 0.47571626 0.17810772 0.7306771 0.13309366 -0.47025272 -0.44925362 0.3658217 0.34346795 0.3431881 -0.65434 0.9624859 -0.48767945 -0.77514726 0.25864816 0.15372823 0.015845735 -0.041247237 0.7498101 -0.92572343 -0.47295725 -0.57028043 -0.017373292 0.28040454 -0.5586722 0.10160532 0.19261625 0.73831475 -0.23247159 0.24200761 -0.2792679 -0.23129112 -0.54046893 0.8785486 0.4781732 -0.8044815 -0.68302655 -0.31803682 -0.7613047 -0.33689663 0.29089004 -0.49744326 0.37571508 0.5376372 0.1683753 0.3305611 -0.73506016 -0.21301873 0.6714736 0.7899962 7.373613e-05 0.004828724 -0.6300381 -0.59258664 0.27832568 -0.18189761 -0.25888598 -0.10519554 -0.14566034 0.86938864 -0.89156824 -0.64656836 -0.81469756 -0.33228722 0.5412202 -0.38756773 0.24548303 0.21101102 -0.90761584 0.95709926 -0.25934783 -0.60040003 0.11332087 -0.013429286 -0.41111 0.044939805 0.018157253 0.26902863 0.049263205 -0.44048163 -0.31870356 1.1783577 0.6037881 0.63151985 0.39531085 -0.13661055 -0.122480795 -0.043574445 -0.53555906 0.99807715 0.4562242 -0.74933016 0.83747286 0.6269929 -0.16770914 0.62823397 -0.23719835 -0.88162094 -0.053982627 -0.57834613 0.12701729 0.351239 -0.56468403 1.1952806
academic_institution -1.354836 0.7735862 -0.72796905 -0.2963236 -0.26753303 -0.3066053 -0.7639561 -0.6577863 0.60846066 0.95697165 -0.37857118 -1.1859072 0.14178844 0.032725263 0.34922746 -0.410358 -0.4746776 -0.33475044 -0.4143987 0.5436305 -0.5289667 -0.7234759 -0.40378615 -0.10844051 -0.3336358 0.6992672 -0.32106045 0.65456516 0.08423975 -0.2063427 -0.3245693 0.4647845 0.1504824 0.64423823 -0.2627859 0.2864868 -0.25805834 0.35339737 -0.0065815765 0.2572074 0.31378067 0.12270797 0.00961503 -0.28802037 -0.13174118 -0.09720024 0.25237736 0.24566405 -0.18452233 0.52280444 -1.1643516 -0.19236626 -0.63698626 0.36241165 0.055156823 0.17158487 -0.112636715 0.2905799 0.26711908 -0.762479 -0.49655718 0.067068726 -0.35893428 0.020154545 -0.16547114 -0.25640193 -0.009889355 0.4835156 0.3571866 -0.44333377 -0.6463775 0.0109402705 -0.36524537 -0.37663507 -0.13517931 -0.15143022 -0.047763526 -0.18101083 -0.31877077 0.6419125 0.46851838 0.21991596 0.67560315 -0.56912017 0.19242541 -0.07744928 -0.26385546 0.24518345 -0.6064913 -0.45976138 0.3553761 -0.23374797 0.41231847 -0.00801079 0.4502607 -0.122297436 0.37410173 -0.17031094 -0.33780447 -0.14710432 -0.61795735 0.18851607 -0.27322963 -0.17681715 -0.22163108 0.60938233 0.3148576 -0.9581773 -0.09896069 -0.71141684 0.11386621 0.4340115 -0.5702623 -0.29172543 0.30463195 -0.18399148 -0.14004928 0.16208023 -0.09936144 0.33547378 -0.36297736 0.3501221 0.409905 -0.14141299 0.17001383 0.3024846 0.07620332 0.11436954 0.2667518 -0.05532902 -0.40009043 -0.8680106 -0.026122125 0.59957016 -0.041435935 -0.058742635 -0.06171003 -0.19913861 -0.30383763 0.6922722 0.18738715 0.2553431 -0.16433686 -0.16248189 0.22357658 -0.48518437 0.038529206 0.5620223 0.17505935 -0.18961647 -0.24722438 0.06508129 0.30245414 0.25169903 0.6269541 -0.4441953 0.48741302 0.2267751 -0.11608947 0.05749401 0.46445814 -0.010245922 -0.22967733 -0.35641983 -0.48560458 -0.036531635 0.4747005 -0.22947694 -0.12912889 -0.3243245 0.61668354 -0.3335182 -0.14004675 -0.15013826 -0.1761899 0.62555444 0.011014236 -0.67971087 0.30090976 0.7414441 -0.35445917 0.12109142 -0.27676338 0.56874454 -0.1989897 0.005389258 -0.48321366 0.13334939 -0.63808185 0.2238186 -0.50644016 0.53987765 -0.3852474 -0.5147592 -0.19119108 -0.23093411 -0.33112442 0.14143255 -0.28970778 -0.37848204
author 0.5024884 0.21112052 0.32787266 0.8579995 0.19259246 0.719774 -0.4014972 -0.11658988 0.15465833 -1.2417874 0.04338329 -0.76206553 0.46211213 0.34062243 0.51971513 -0.43882006 -0.61728394 -0.38939494 -0.31955773 -0.33611482 0.2761073 0.9719514 0.41924858 0.7636942 0.49121857 -0.19505008 -1.7143346 -0.65915644 -0.28056636 -0.97947127 0.27066612 0.04059627 0.24237894 -0.19762209 0.4560496 0.8928492 0.16117738 0.98782617 0.8740113 0.8972342 -0.122668356 -0.103064135 0.41086543 0.21077013 -0.5324735 0.53007966 0.03802007 -1.2570034 0.4928781 -0.41831854 -0.6787943 -0.10651776 0.21090603 0.23492728 0.62208426 1.018813 -0.6705918 -0.16494414 0.12904446 0.8122994 -0.20192647 -0.6005303 0.22347851 -0.31023484 -0.9052446 0.4384281 1.3933368 0.69383854 -0.53284895 -0.33692732 1.5979093 1.0243336 -1.0839151 0.13609345 -0.57206416 0.4990314 0.35741258 -0.3559459 0.34636757 0.10081282 0.65643024 -0.5206057 0.20278303 0.22751822 -0.30737695 0.03835716 1.0776685 -0.0012856843 0.08953675 0.2362546 -0.6833441 0.18954144 0.3348657 0.6382507 0.0048911977 0.25687218 0.35598153 0.10600256 -0.8789233 -0.36481917 -0.9986224 0.42893815 0.8065351 -0.025024036 0.09025763 -1.3923882 -0.11428647 0.4069519 -0.53144705 0.36419976 0.78163916 -0.90985 -0.03181695 0.037185196 -0.19179681 -0.8000694 -1.0932372 -0.103812374 0.18378054 0.1248474 0.38108963 0.46504164 0.031155761 0.07203774 -1.1461217 -0.40983692 -0.13029568 0.28825623 0.25008518 -0.34019536 -0.17382592 -0.55162656 -0.24700645 -0.09270337 0.3889128 -0.094086446 -0.15176271 -0.34953913 -0.94535327 0.15801455 0.002243895 1.0099838 0.64987546 0.95747024 0.28117296 0.08775055 -0.56294286 -0.4463936 -0.6821323 0.48993388 -1.0344394 0.07128785 0.5640917 0.66360664 0.4922086 -0.6500074 -0.7300113 0.84162587 -0.35204723 -0.20141193 1.1689537 0.86159873 0.97730225 -0.178885 0.53796947 -0.6111054 0.9121176 -0.10640486 -0.72420824 -0.1753682 0.6931813 0.61573684 -0.47169596 -0.57664084 -0.327965 -0.25556174 0.43123087 0.38455945 -1.1501971 -0.19930288 -0.08822076 -1.0332272 -0.37837875 0.56381065 -0.34771344 -0.77943933 1.057787 -0.912215 -0.4153448 0.45420358 0.76207596 0.50137955 0.0036875335 0.78670084 0.44541472 -0.19606753 -0.3617653 0.76042455 -0.60496455 -0.01824576
pc_member -0.5861884 -2.615851 -0.07257647 -1.4159667 -0.14076224 -0.6705525 0.22762847 0.38478693 -0.5218744 -0.23145206 -1.0144285 0.68415695 -0.09722962 -0.39994353 0.069038086 -0.018866843 -0.2840047 -0.51569206 0.23001125 0.12664509 -0.88387614 -0.65113074 -0.16533151 -0.71266705 -0.46074507 -0.2083445 1.1169587 0.6499121 -0.074532144 -0.17699938 0.5733929 0.38394898 -0.94513094 -0.18211353 -0.36198172 -0.005795603 0.14388625 -0.2957397 0.36429343 -0.33660087 -0.32977483 0.32859832 0.020053707 -0.2861174 0.78777426 0.30455643 -0.2417838 -0.35849372 -0.67220825 -0.052411176 0.084807195 0.75499463 -0.40510622 0.17379445 -1.161034 0.5704814 0.22786815 -0.28493702 -0.113092385 -0.23432244 0.7345081 0.92979205 0.1374839 0.6132102 -0.1682168 -0.33978444 -0.22156203 0.23449835 -0.3287499 -0.7797241 -0.69836575 -0.17489047 0.5903275 -0.31576198 -0.14578725 -0.5234516 1.0012915 -1.066937 0.30325815 -0.16911988 -0.051659707 0.1543578 1.2752998 0.45954624 -0.025974695 -0.30147952 -0.8015519 0.016997015 -0.6193024 -0.32723027 0.10031924 -0.6205752 -0.6180068 0.023717795 0.5394536 0.15838982 -0.7203271 0.13692316 0.38836676 0.10382983 0.8673276 0.038600687 -0.30959237 0.31652844 0.288726 -0.7547906 0.1534087 -1.2781998 0.6283032 0.27416933 -0.3017717 -0.3303158 -0.25342312 -0.24433964 -0.0013458566 0.37861443 -0.094927974 0.8880022 -0.940642 -0.1247729 -0.38219872 -0.5269684 -0.026789816 -0.089036256 0.8566611 0.52603275 0.5487293 -0.0902925 0.5150437 0.4738688 0.6761096 0.37237665 0.14915219 -0.3588206 -0.24048911 0.027559863 -0.31144303 -0.12783605 0.4668454 -0.5641463 -0.21065852 -1.4273741 -0.14024499 -0.25046384 0.9416865 -1.0598283 0.62463695 0.6549528 -0.10775742 0.24004309 -0.3205235 -0.5710828 -0.4078553 -0.40289077 -0.044654697 0.8572506 0.2636458 -0.80379987 -0.2607212 -0.30924612 0.35647485 -0.24581736 -0.59407574 0.16485992 -0.12776586 -0.12756792 0.042505383 -0.038225483 0.1000213 -0.14650452 -0.36431497 0.17184669 -0.052394386 -0.1333037 -0.5043992 0.49028173 0.27670917 -0.7765448 0.5127853 0.5380704 0.1308836 -0.009268186 0.41941178 -0.65121377 -0.2797764 -0.26348546 0.19199696 0.37381232 -0.21509759 -0.058139764 -0.48728624 -0.017771263 0.0982311 0.20487326 -0.5718513 0.5837959 0.35218662 -0.41472256 0.81729406 -0.7575362
oc_chair -0.8897866 -0.30025214 -0.4926462 -1.0048494 -0.25209585 -0.45457906 -0.5038245 -0.76633567 0.36151326 0.08913513 0.06262548 0.045176968 -1.4543099 0.5201885 -0.48536882 -0.5419574 0.44542348 -0.70822585 -0.41274124 -0.08717818 0.6267227 0.570204 0.6593006 -0.053312846 0.46548533 -0.2695688 -0.08110777 -0.4778668 -0.12088132 0.3582055 0.3401003 -0.25295484 -1.0866255 0.78621763 -0.5912592 0.18870099 -0.6050583 -0.46928278 0.4804089 0.43057734 0.5878756 0.12761363 1.1491684 -0.6738343 -0.64472294 -1.2841738 -0.10779143 -0.25348538 0.31549776 -0.9239162 -0.8762489 0.28303 -0.4507613 -0.97789913 -0.3666262 -0.4414838 0.5973365 0.42253423 0.042458624 -0.3208112 0.43691257 0.89988714 0.371576 0.5458884 -0.5225937 -0.37784964 0.19462718 -0.524372 -0.614163 -0.9158971 -1.4271084 0.038187947 1.3816676 -0.31771994 -0.7757026 -0.7813164 0.53804135 -0.11732277 0.27911264 0.80954534 -0.30494103 0.052813515 0.9438067 0.84573054 0.46697462 0.48899117 -0.4641299 -0.008313407 -0.7228804 -1.293429 0.86496055 0.3217322 0.5506665 -0.48761642 0.5197142 1.0697879 -0.6425733 -0.42752114 0.24095255 0.41790625 -0.056148503 -0.11836137 0.64291304 0.80020565 -0.7503027 0.16170974 -1.3317373 0.024196338 0.41117704 0.31649867 -0.7562644 -0.031111607 -0.6790869 0.21978238 -0.51451355 0.30098704 0.15692177 0.29337373 -0.68840516 -0.9339564 -0.83251226 0.17724212 0.52513826 -0.7023094 -0.17810541 -0.42952695 0.84443814 0.38542053 -0.038009267 0.6093191 0.57289904 0.26982242 -0.5746676 0.054839905 0.9308251 0.8470832 0.3027417 0.09284422 0.938248 0.491177 -0.23230818 -0.19125599 -0.609627 -0.61880267 0.5540055 -0.010313532 -0.27699533 0.14176466 0.80143756 0.10104587 0.2494321 0.17296755 -1.0429034 -0.34122467 -0.033973217 0.33695677 -0.30570877 -1.881466 0.17342953 -1.5656129 1.260764 0.4192579 0.011865409 0.22781366 -0.16380017 -0.5728868 0.3872966 -0.1135269 1.4371803 0.16641095 -0.47245246 0.663 -1.4894372 -0.5827057 -0.072409995 -0.16674584 -0.077358626 -0.907028 0.3183247 -1.3392091 -1.0266911 -1.328074 -0.3241621 1.1467258 -0.9955185 -0.25706244 1.0484984 0.2694674 -0.70604676 -0.88145703 0.37733027 0.18171589 1.2424695 -0.2336582 0.47886285 -1.1779344 0.34081534 -0.8718863 0.88779104 -0.6232335
conference_proceedings -0.95917857 0.5411581 -0.9384303 0.4637998 -0.19120742 0.9541001 1.6532768 -0.5345098 -0.043561254 0.7094375 -0.44689196 0.6060328 -0.3383922 -0.6810696 -0.44792262 -0.26134968 0.21758541 0.016949646 -0.90391994 0.7323842 0.37390992 0.18355276 0.42050332 -0.08330581 0.63717514 -0.5156053 1.0070418 0.8425921 -0.18463854 -0.51702183 -0.64040184 -0.31467125 -0.31171763 0.38521472 -0.64081764 0.64047384 -0.81058455 0.71768725 0.23936538 -0.35726127 0.5335839 0.010007584 0.6509037 -0.036319807 0.428991 0.47561204 1.0050415 -0.10149555 -0.1075872 0.25400987 0.37430248 -0.47113493 -0.1945389 -0.32779643 -0.4852445 -0.27593216 0.7338938 1.0035647 0.6956499 0.045950335 -0.2238687 0.29637063 0.87481457 -0.2521607 0.7270559 1.0631738 0.24876724 0.9522147 0.8821308 -0.017531145 -0.44127294 0.5347947 -0.54713607 -0.38189006 0.92588395 0.22055487 -0.5357739 0.4288691 0.42591253 -0.6504801 0.46572432 -0.22140835 -0.584068 0.083407655 1.3297509 0.035866283 -0.78073967 -0.5270771 0.13757114 -0.14061229 -1.2143487 0.4811588 0.5961633 -0.33939415 0.6280704 0.67311823 0.30756035 0.35745674 -0.86432844 0.48325744 1.1681267 -1.3761368 0.9898456 -0.22742507 0.6543996 -0.029174373 0.69859713 -0.9826639 -0.40586525 0.23964676 -0.5112286 0.7196008 0.8871879 -0.19546565 -0.44669363 0.41422346 -0.032255325 -0.95429903 -1.0218489 -0.2043487 -0.27659628 -0.12371339 -0.4940611 0.24800222 -0.3180207 -0.55585116 0.6569258 0.75032496 -0.25694588 -0.21908344 -0.17121974 0.6498058 0.9895665 0.320201 0.47055823 -0.44755894 0.2099337 0.27511233 0.12679657 0.11191999 -0.59748966 -0.09243299 -0.6704213 -0.7766915 -0.10570718 0.23778407 1.1590182 -0.21927837 -0.2534537 -0.47466412 -0.13346432 0.5459716 -0.046699833 0.89662176 -0.10751757 0.11237211 0.6573921 0.2541521 0.13421355 0.0020456081 -1.3990145 0.4589337 -1.302879 -0.11055014 0.032618407 -0.4361272 -0.77941495 1.1284864 -0.73471344 -0.5694282 0.14365575 -1.27136 -0.901052 -0.81381124 1.1261722 1.3190805 0.7424416 0.6110933 0.15809754 -0.18049139 0.11047075 -0.2789013 0.29966062 -0.37846467 0.42212886 -0.83425283 0.91846323 -0.27947456 -0.13332842 -0.8230788 -0.7102478 0.8570684 0.6789827 0.18266279 -0.051198665 -0.16387211 1.2902384 1.8055815 0.13112931 0.46919042
invited_speaker -0.623837 0.43266597 0.22095841 -0.122591145 0.27251583 0.1277227 -0.57240677 -0.38709584 -0.18754816 0.4341238 0.058810383 -0.11400083 -0.53147566 0.5229397 0.25656113 -0.75456095 -0.9673034 -0.4816045 0.8321088 -0.25797212 -1.1340351 -0.18894348 0.725737 -0.22967675 -0.698135 0.664867 -0.0010736508 0.5226185 1.1890088 0.7245293 -0.20216984 0.3057015 -1.03824 0.3573434 0.012136331 -0.24811387 -1.2209247 -0.019715158 -1.6581295 0.05997425 -1.995831 0.2570936 -0.76433325 -0.5511428 0.54777604 -0.4499343 -0.024723127 -1.4010676 -1.1464934 -0.15994383 -0.45638442 1.0714773 -0.24186462 -0.39110586 -0.05399714 -0.63660216 -0.39064145 0.2774248 -0.104263835 -1.3696816 -0.668199 1.010208 0.028619647 -0.35331374 -1.3571466 -0.3725844 -1.3456159 0.18061107 -0.24096137 0.04738447 -0.25294617 -0.024047771 0.49444067 -0.48104233 0.05602483 -0.010906217 0.49331316 -1.2934825 1.5067775 0.08821988 -0.6830383 -0.047139216 -0.12687628 -0.052798674 0.8416489 -0.16919737 0.9149073 -0.40325087 -0.10658474 0.26340613 -1.4434626 -0.24123108 -0.97011566 -0.4517807 0.591184 -0.25366452 -0.34143254 0.7742264 -0.059012365 -0.32961875 -0.40550572 -0.39067665 -0.29975975 0.22903197 0.5231462 0.89144564 -1.252444 -0.8463371 0.551039 0.69223183 -0.026981704 -0.48033723 0.14902765 0.36282527 -0.47235665 -0.38616425 -0.16028032 1.4842007 -1.0832765 -1.2092718 -0.13820554 -0.81844044 -0.6292789 0.09987938 0.67741424 0.7136557 0.2813801 0.009989903 0.29544494 0.3714505 1.3716496 0.72393256 0.4527169 0.096136205 -0.20409943 0.8301262 -0.29922208 1.0096602 0.122630864 -0.8098653 0.22317305 -0.31177753 -0.56708854 0.4030895 0.9312208 -0.7024645 -0.95006347 0.23761739 0.42430747 -0.21474797 -0.4355389 -0.2873897 0.034994893 -0.84215117 0.22452247 -0.47153738 0.0430605 -0.48189536 0.5481271 -0.83477616 -0.00093418633 0.7389476 0.68596905 -0.5651189 0.07225979 -1.0274801 -0.050662678 0.041814506 0.44463325 0.64916337 0.8534813 0.17274565 -1.0301201 -0.30361843 -0.26533076 0.4527702 0.31236243 -1.0434293 -0.71915436 0.8609102 -0.5708589 0.055645067 -0.54595995 0.30961832 -0.8625119 -0.20295964 0.14961062 0.74363315 -0.5061331 -0.6902187 0.13579711 -0.10392526 0.43202806 0.08286939 0.7539533 0.45926058 0.85815376 1.3266139 0.31377542 0.8432427
oc_member -0.66898125 -0.30447403 -0.27098852 -0.94047886 -0.22489135 -0.16587777 -0.032765757 -0.7144632 -0.14432815 0.33753598 -0.14793368 0.16221955 -1.5122701 0.39654747 -0.58507794 -0.48128352 0.25803673 -0.6832027 -0.11588287 -0.3295471 0.03373411 0.14818065 0.6726878 -0.3634831 0.34185964 -0.20950174 0.16581298 -0.5586721 3.1014257e-05 0.4181188 0.41344193 0.0273765 -0.9779305 0.5255456 -0.7546166 0.5349585 -0.6224202 -0.38452944 0.43711242 -0.09608023 0.50786805 0.13521212 0.7676648 -0.9969206 -0.33470902 -1.0064427 -0.31446445 -0.49717924 -0.38024455 -1.2212656 -0.93596345 0.46019977 -0.7520162 -0.8299304 -0.32635352 0.04429303 0.37850505 0.48079693 0.4323021 -0.40279734 0.61832184 0.4284521 0.20837761 0.26222003 -0.13737601 0.17333718 -0.123032734 -0.69375664 -0.5646532 -1.2438108 -1.7801787 0.023332201 0.8657357 -0.32305112 -0.8932893 -1.3120676 1.2509243 -0.4476802 0.013368342 0.49847355 -0.5862551 -0.09055707 0.69801074 0.28785563 0.9888299 0.43270552 -0.49508765 0.37696162 -1.0032241 -1.0337441 0.46870977 0.44219235 0.18683267 -0.5862507 0.7077424 0.7022741 -0.68181217 0.15567233 0.14281513 0.23819879 -0.38228378 -0.060281675 0.85868275 1.3801088 -0.8739566 0.49940583 -1.2379743 -0.72655773 0.6386773 0.28975475 -0.35201555 -0.4823169 -0.16904669 0.4573544 -0.30072215 0.44654053 -0.029235207 0.9097345 -1.1060132 -1.1229638 -0.7663627 -0.055956002 0.17451265 -0.9216834 0.23666403 0.4185522 0.9920129 0.13421018 0.06664246 0.70228255 0.8675041 -0.28131038 -0.27523786 -0.40221712 0.68596566 0.1544745 0.15913618 -0.05719566 0.96282345 0.40279418 -0.30981314 0.112068914 -0.24654776 -0.45220926 0.959645 -0.06637333 -0.25337356 -0.28649887 0.406738 0.1765787 0.531955 0.046426684 -1.0562536 -0.5266865 -0.16571902 -0.17969118 -0.09465476 -1.4320915 0.37667736 -0.71432835 1.0302107 0.06442729 -0.32610697 -0.14529821 -0.3529022 -0.29369488 0.24460539 0.1157702 1.4702337 -0.22775534 -0.23263061 0.26417196 -1.0098782 -0.13092163 -0.06940233 -0.42569047 -0.044032387 -0.026618654 0.44354963 -1.4552904 -0.5813715 -0.7561687 -0.17263559 1.0510913 -0.62223977 0.059102718 0.23901027 0.06237444 -0.541464 -0.647903 0.25110382 0.600079 1.0043871 -0.3365637 0.079294614 -0.6972636 0.1961798 -0.88886803 0.5639245 -0.6805473
presenter -0.52084374 0.011842755 0.20518993 -0.21753106 -0.10442519 0.053339094 -0.49649334 -0.048757426 0.25526306 -0.077027194 0.07578346 -0.32841825 -0.38432285 0.20031725 0.34112012 0.09812675 -0.5818937 -0.39957702 0.92907876 -0.075023815 -0.41476724 0.022503879 0.09813865 -0.5688464 -0.44446403 0.19886199 0.27031723 0.12820792 0.78875756 1.1038603 -0.29171312 -0.29428166 -0.33164135 -0.16853745 0.11165307 -0.59440273 -0.38189635 -0.503701 -1.1813242 -0.20484532 -1.2000358 0.29542187 -0.6402555 -0.42576584 0.6910709 -0.2005575 -0.7352275 -0.98957217 -1.2239482 -0.011806861 -0.21140362 1.2763683 -0.30091837 -0.24813236 -0.108166926 -0.77999574 -0.12176385 -0.055816103 -0.23762485 -1.5225595 -0.36032587 1.1409994 0.0060989987 -0.06600708 -1.1671034 -0.48718202 -1.5393649 -0.3445528 -0.118037865 0.2256544 -0.56671965 -0.33038193 0.7775231 -0.7690638 0.337698 -0.21208431 -0.102855556 -1.0928546 1.3696729 0.23956937 -0.6835822 -0.17002074 -0.0895187 -0.3213399 0.41087827 -0.20232762 0.04135054 -0.047127374 -0.31978142 0.3955478 -0.66140765 -0.669907 -1.3196316 -0.6108095 0.65697455 -0.021658888 -0.61487967 0.77849454 0.31423303 0.08988805 0.14418884 -0.0133706825 -0.3638825 0.5246871 0.42640883 1.074182 -1.3829105 -0.8477175 0.5195137 0.5572209 0.097274 -0.5132264 -0.098911025 0.17428045 -0.34405196 0.16100124 -0.16030972 1.214494 -0.8534509 -0.93932927 -0.11293603 -0.85083866 -0.60968643 0.19210674 0.85965407 0.5228161 0.39025298 -0.38987643 0.18983804 0.14129788 1.3968536 1.0260651 0.75844145 -0.07093209 -0.49445847 0.51668936 -0.12383931 1.2285637 0.31714615 -1.2736804 0.08628855 -0.71767616 -0.90481377 0.26242906 0.6470278 -0.91768384 -0.81087774 0.54659426 0.9310269 -0.1972387 -0.12724714 -0.5655957 -0.3031485 -1.0610098 -0.14608274 0.0058868993 0.45749235 -0.9482299 0.5381103 -0.6308854 -0.013208031 0.52851874 0.5477715 -0.7706548 -0.1555829 -0.59765214 -0.1156509 -0.026158515 0.4856249 0.66439086 0.36244306 -0.14230384 -0.71306854 0.009891125 -0.0032892558 0.5585114 0.26597968 -1.4561335 -0.08351325 0.93142676 -0.38100055 0.0028226208 -0.17218152 -0.12223661 -0.86713845 -0.21510303 -0.10350077 1.5025672 -0.37288707 -0.82648665 0.101698376 -0.82987237 0.16048047 -0.10163713 0.53249294 0.31941465 0.7959093 0.9089685 0.63400304 0.71947694
proceedings 0.017987395 1.8350598 -0.824842 0.64679027 -0.13928914 1.0249285 1.7592486 -0.62914276 0.343462 0.66131663 -0.13432822 0.98464644 -0.44877088 -0.86095387 -0.4989178 -0.4316182 0.44315186 0.32314137 -1.0593547 0.65522254 0.82176524 0.35422015 0.9424755 -0.31093436 0.68642825 -0.50710535 1.0352843 1.1470945 0.0048880624 -0.45610508 -0.51772195 -0.54615504 -0.14829445 0.76480305 -0.6361008 0.55014676 -1.063706 0.8390035 0.18646333 -0.56384784 0.6241071 -0.24621366 0.7139184 -0.003217472 0.7155915 0.428122 1.248854 -0.15847749 0.04788428 0.07850181 0.37213635 -0.16082226 -0.41718128 -0.6552866 -0.6339235 -0.44335684 0.57119846 1.3391396 0.52036923 0.12303136 -0.3193047 0.32962024 0.67728215 -0.31952178 0.6311683 0.9522701 0.018955234 0.6436044 0.47256476 0.10041121 -0.27830246 0.3469946 -0.46901336 -0.35646707 0.66278446 0.35286337 -0.5475982 0.3741196 0.4528783 -0.4906649 0.3924802 -0.30125648 -0.53675324 0.218879 1.1503297 0.11382231 -0.8340745 -0.58428526 -0.27518925 -0.15168265 -1.0970801 0.103690214 0.23173375 -0.18695578 0.64971995 0.90775776 0.63773096 0.647158 -0.76474714 0.8676128 1.0545117 -1.410938 1.1082705 -0.40184838 0.53629285 0.036454782 0.4253633 -0.8049003 2.1931028e-05 0.15001701 -0.7574913 0.5556214 0.8812628 -0.026917625 -0.32475084 0.232208 0.06289749 -0.7849862 -1.1768253 -0.2688359 -0.08182405 -0.022828773 -0.6680276 0.2903399 -0.13368464 -0.5119651 0.28403947 0.53397185 -0.27235985 -0.1380129 -0.29038003 0.8241782 0.9247932 0.03455757 0.5662136 -0.40080643 0.46813267 0.5875037 0.10963511 0.183575 -0.4478833 -0.20667507 -0.34690243 -0.9218013 -0.08512092 0.56032366 0.9902674 -0.1940572 -0.24297665 -0.43461448 -0.24169631 0.4984765 0.31113762 0.7635149 -0.19174927 0.13378592 0.7276579 0.26998585 0.004466234 0.061503418 -1.5971609 0.5146206 -1.2561655 -0.31468558 0.4135741 -0.42868397 -0.53858215 1.2614284 -1.0186903 -0.108146474 0.09226613 -1.3888783 -0.9564078 -0.7384496 0.967293 1.2065465 0.7264202 0.45837796 0.112017296 -0.30669218 -0.21713741 -0.3432331 0.27847627 -0.18670526 0.63403434 -0.817441 0.8769493 -0.18034282 -0.18169443 -0.70369315 -0.7620621 0.55759865 0.80396134 0.15360264 -0.29594457 0.05330473 1.0285598 1.4174231 0.09970871 0.52533764
research_institute -0.62006843 -0.38168797 -0.30221918 -0.39126086 -0.19957355 -0.12097211 -0.62102044 -0.47841328 0.6099619 0.76998615 -0.20633075 -0.93617815 -0.09622409 0.050903097 0.043789476 -0.071839534 -0.31200114 -0.7038851 -0.5640506 0.47070515 -0.32161668 -0.51891726 -0.46548417 0.3408713 -0.43190303 0.7085752 -0.3035073 0.94292384 -0.05165876 -0.19688906 -0.12290961 0.5714542 -0.26709598 0.7202105 -0.23758635 0.41654444 -0.08443848 0.42773274 0.4413956 0.03805467 0.27144277 0.47961113 -0.22609998 0.010665845 -0.18469009 -0.15876211 0.36719832 0.103926644 0.061133407 0.38609353 -1.2912579 -0.2328112 -0.6225991 0.14031915 -0.36092103 0.33338186 0.45903328 0.35565892 -0.06482917 -0.611452 -0.7361031 0.2652244 -0.42689675 0.30225796 0.116863556 -0.4630125 0.10640419 0.6711894 0.16531135 -0.14502496 -0.4355934 0.17671543 -0.3054131 -0.41046405 -0.0066386587 -0.01791142 0.14681464 -0.35628954 -0.061527062 0.2551092 0.61476487 0.2310028 0.53147554 -0.4702947 0.1841427 0.035732493 0.12332475 0.16310275 -0.3427843 -0.2163564 0.32628122 -0.41081 0.35517636 -0.1251363 0.4775659 -0.12765469 0.37348172 -0.20614737 0.072626255 0.058759417 -0.29939222 0.29387587 -0.24776763 -0.16422354 0.20874183 0.40363142 0.15886529 -0.783196 -0.03564641 -0.46682936 0.21300113 0.38816562 -0.39071834 -0.25964215 0.054009352 -0.33509874 0.3255775 0.118862666 -0.19227195 0.107460365 -0.35299447 0.51947254 0.40292552 0.16247828 0.08315939 0.50200105 0.15023762 0.4244156 0.034700576 -0.3162566 -0.35799134 -0.6525466 -0.14281204 0.6383296 0.21207629 -0.06898654 0.0713876 -0.12607294 -0.24929947 0.52055997 0.52630013 0.202923 0.045692816 -0.16749132 0.27417612 -0.41598192 -0.023488738 0.30267376 0.24033722 0.024662944 -0.17908706 0.062051915 0.022423502 -0.025043558 0.5866326 -0.39021796 0.48936182 0.28039476 0.072709456 -0.22312392 0.2056441 -0.12447756 -0.28668913 -0.02858101 -0.3548267 0.1441973 0.32535607 -0.018128406 0.13657603 -0.27473292 0.594478 -0.26327837 0.13548756 0.047001317 -0.2058328 0.6164464 -0.25448066 -0.6705818 0.07821698 0.74303484 -0.08534104 0.41201517 -0.016637776 0.62940216 0.06541975 -0.25721785 -0.37819314 0.31737444 -0.5691363 -0.28113505 -0.38048878 0.5377787 -0.49174196 -0.28736565 0.14490685 0.15333755 -0.06253328 0.13856962 0.010131633 0.052499082
chairman 1.0411363 -0.9666234 0.7282059 0.7176904 0.30678174 -0.23789516 -0.27368373 0.014661135 0.21388133 -0.38954908 0.5641948 0.17541409 0.8401584 0.034657955 -0.11662576 -0.040238246 -0.17988664 -0.23201695 -0.7401781 0.36254978 0.6520444 0.10183936 -0.11320736 0.3338005 -0.06799365 -0.12915461 -1.0689716 -0.46486428 -0.8741321 -0.20637147 0.5486433 1.0190848 -0.115216486 -0.6019553 0.35980776 0.30917343 -0.23104477 0.8942423 0.49951145 0.45355055 0.334235 -0.03051931 0.38209775 0.2684652 0.008959297 0.32209635 0.094582014 -0.21314399 -0.55288535 0.16049169 -0.10927081 -0.39197835 -0.30624652 -0.052474685 0.17494768 -0.14902072 -0.38054296 0.12962939 0.47107828 0.34419075 -0.51851517 -0.70718414 0.2924682 -0.08668438 0.33370847 -0.14480272 0.93093026 0.5153451 0.041376658 0.5517269 0.12671268 0.46280468 -0.054079458 -0.4962239 -1.0615636 -0.45990703 0.2739338 0.2962958 0.31268868 0.68329537 0.32251516 0.19576986 0.049957454 0.5552955 -0.025348712 0.12064728 0.10027529 -0.9717141 0.7512277 -0.67237747 -0.90696293 0.7466861 -0.15873522 0.33598745 -0.5420115 -1.0470315 0.6297938 -0.01524921 -1.0229182 -1.1173115 -0.10944496 -0.24954106 0.32741773 -0.62244624 0.32338744 -0.7214166 0.5272977 0.1370021 -0.3824041 -0.38781798 -0.39992964 0.6228287 0.65299374 0.42001396 -0.15391059 -0.5969649 -0.5008527 -0.5623897 0.055169538 0.41389093 0.20004275 -0.62340593 -0.0647907 -0.32253373 -0.5653073 0.036507785 -0.42557582 0.31344062 -0.51481724 -0.852331 -0.17079487 -0.19459136 -0.12636137 0.5965081 -0.036046807 0.28026953 0.050583992 0.48161003 -0.83862805 0.46653876 -0.3829304 0.8661604 0.21042627 0.7140354 -1.2264043 0.62050575 -0.009893404 0.07474596 -0.29173186 0.32803518 -0.6150338 -0.17174232 0.71141887 1.1217109 -0.23352969 0.10627065 0.14061798 0.7994007 -0.55620986 -0.16586538 0.18783663 0.20484848 0.67732185 0.23261249 0.722629 -0.86925626 -0.1566379 -0.6132844 -0.7670605 -0.039748102 0.42755586 -0.037089683 -0.24201316 -0.19480523 0.41273433 0.58913726 0.45932665 0.18920581 -0.56776035 0.07188591 -0.86718035 -0.017734801 -0.16740604 0.17075866 -0.19166374 -0.555345 0.76182675 -0.7064901 -0.7028284 0.17497501 0.8724313 -0.7051908 0.015388535 -0.032524817 0.63327324 -0.22571702 -0.7555142 0.31226847 0.04065587 -0.16033606
university -0.42542347 -0.5753929 -0.2007696 -0.42869452 -0.1505227 -0.07013808 -0.5574573 -0.45266563 0.58311963 0.6769819 -0.1416878 -0.85441834 -0.1839892 0.038308937 -0.03165032 0.018241573 -0.26648057 -0.80419606 -0.578867 0.45700416 -0.255999 -0.47188646 -0.47133508 0.48164472 -0.46762127 0.7230574 -0.26262024 1.0385368 -0.09120892 -0.23747775 -0.08065796 0.6683664 -0.40897682 0.7278851 -0.19742088 0.45728877 -0.048243042 0.47741553 0.5957719 -0.094825715 0.2509583 0.6021069 -0.26835576 0.069560714 -0.24022631 -0.17941149 0.4308776 0.076646544 0.14163864 0.35664612 -1.3287642 -0.25689003 -0.6392279 0.11522249 -0.47770163 0.379505 0.66221523 0.36593708 -0.15958096 -0.5771679 -0.7577011 0.28153238 -0.4153454 0.3630336 0.1569477 -0.5309025 0.14745311 0.7498912 0.082613654 -0.08139997 -0.36036628 0.21906805 -0.3142205 -0.40451935 0.0706523 0.01688741 0.2399744 -0.42979127 -0.024376778 0.12713903 0.56798285 0.24411699 0.4944129 -0.46234974 0.16332088 0.06866249 0.21726999 0.12041389 -0.19668943 -0.09783683 0.2849854 -0.4365634 0.31354067 -0.18865152 0.47876978 -0.15712965 0.35004333 -0.19548124 0.19631155 0.11253891 -0.27359352 0.3333205 -0.21594991 -0.15898907 0.28793725 0.33362475 0.15370081 -0.69838345 -0.03320291 -0.37276655 0.27358726 0.3329549 -0.33677772 -0.20903738 -0.007091223 -0.38128456 0.45718706 0.121506944 -0.144368 0.022597926 -0.3219159 0.58611804 0.43822515 0.27260777 0.042780843 0.49377736 0.1817373 0.49788162 -0.08136204 -0.3015222 -0.34557757 -0.6193152 -0.17527202 0.6325329 0.2965797 -0.10382197 0.072564155 -0.123212725 -0.20961119 0.5300799 0.6160273 0.18696932 0.14876945 -0.19358407 0.31525525 -0.42567515 -0.029608706 0.21798727 0.20589228 0.08517787 -0.1247483 0.07479539 -0.08386913 -0.13955067 0.58962417 -0.43278575 0.43987206 0.31862482 0.13388346 -0.2937321 0.18829337 -0.14074573 -0.31464848 0.06679016 -0.33405733 0.1924306 0.22605948 0.0047768806 0.24900582 -0.2711218 0.5809912 -0.2295059 0.22080387 0.10097382 -0.17311151 0.5762225 -0.31999424 -0.6371236 0.008202451 0.7173133 -0.004634477 0.53488487 0.05515651 0.5956848 0.13218473 -0.32790986 -0.40053874 0.32254907 -0.5803198 -0.38155442 -0.3275364 0.566456 -0.45567992 -0.20608725 0.2131244 0.31965306 -0.034500368 0.17610994 0.07743687 0.20151246
document 0.006334809 0.72911763 -0.09736817 0.6614357 0.8605705 -0.5732457 0.0061635925 0.7762137 -0.5228314 0.9314883 -0.23876955 -0.90159 0.45193976 0.97994983 0.12890975 -0.44273177 1.210238 0.04832318 -0.53981024 -0.13339585 1.1867908 0.7239475 1.0804932 -0.17926605 -0.09236182 -0.86480707 0.03213305 0.27861413 1.4146458 0.16301987 0.44125834 -0.76659584 0.47435632 0.5226383 0.061046086 -0.9498895 -0.54145825 -0.26504713 -0.7397659 0.16955082 0.21659516 -1.1161555 0.38293487 -0.1974398 -0.07264877 -0.5629855 0.10646269 0.21351698 0.39483455 -0.17822455 0.5991656 -0.5274213 -0.011126261 -0.39189935 0.4085272 -0.21335573 0.1243547 0.1227067 -1.1377407 0.40919265 -0.04291677 -0.17745669 -0.20996502 0.29459706 0.48360163 1.3135027 -0.70390916 -0.6576077 0.18657032 0.044289768 -0.24054585 -0.24630949 -0.022822864 0.00305883 0.6013915 0.3060383 -0.53536946 0.54809994 0.29763708 -0.59882855 -0.12284705 -1.1042205 -0.40323037 0.26131627 0.6510186 -0.2565837 0.10025436 -0.029324457 0.057228025 0.090948366 0.26041213 -0.7388624 0.7148875 -0.72154844 0.7960918 0.859381 0.6730286 0.05168179 -0.6406199 0.45001152 0.81075114 0.57447517 -0.56555265 -0.28490594 -0.8663373 -0.13425082 0.2597703 0.5625697 0.036712117 1.1729268 -0.013809169 0.20432761 -0.5313293 0.57976216 -0.9608888 0.4213148 0.89442784 -0.519079 0.076652125 -0.20289521 -0.11057711 -0.3009321 -0.25841483 -0.21982624 0.3533298 -0.3847072 0.34644726 -0.6152686 0.6854354 -1.1921943 -0.9979333 1.459291 1.2324878 -1.3247495 0.92537135 -0.22922786 0.41652325 0.4041323 -1.0466714 -0.51185715 -0.36441997 0.39408663 -0.58582866 -0.13235976 -0.9422387 0.36559716 -0.18151759 -0.68343484 0.5702785 -0.16111195 0.35942444 1.0952421 -0.86041105 -0.11601125 -0.13121587 0.258647 -0.07460938 -0.9168695 0.4190873 0.33467776 -2.3494291 0.33739245 -0.56340545 -0.29946882 0.798617 0.6508189 -0.3772333 0.793707 -0.72013867 1.3095267 -0.31192264 -1.4025738 -0.28117475 0.3464104 0.3195478 0.4478525 0.03150004 0.6928362 0.28249583 -1.3092166 0.5253157 -0.073330015 -0.20547414 -0.0998806 1.3208065 -0.8478611 -0.0017032067 0.24445489 0.30993557 -0.9807791 -0.59170824 0.30830464 -0.22743347 -0.10392467 0.15272298 -0.36512816 0.7056523 0.1693912 -0.58024085 -0.17044884
conference_member 1.1123325 -1.2298006 0.6646167 0.65170026 0.7824199 0.017305722 -0.23907268 -0.0687718 0.19171782 -0.07285683 0.33757555 -1.0891473 0.38023582 -0.049906436 0.21564041 0.07166234 0.039312165 -0.060269263 -0.8210459 0.24408121 0.85747266 0.5488408 -0.2318361 0.115332805 0.24113059 -0.1407029 -0.99243814 -0.25668877 -1.1431209 -0.6640122 0.64899623 0.774467 0.15508582 -0.3018801 0.6978485 0.36008728 0.21989852 0.93250346 0.54388964 0.39943668 0.55105335 -0.21157016 0.28479376 0.51158893 -0.36764294 0.25559628 0.44833633 -0.36781302 -0.14137468 0.18798926 -0.040879644 -0.6037072 -0.24783097 0.059024394 0.48125297 0.3412331 -0.23234366 -0.11040646 0.19171743 0.51913834 -0.6699031 -0.9505037 -0.051301148 -0.10657772 0.0823432 -0.13686363 1.0885876 0.58610284 -0.19850579 0.4331612 0.5987185 0.26283595 -0.30874935 -0.40327877 -0.9138191 -0.08680661 0.19508582 0.24863094 0.22276703 0.65467364 0.58002263 -0.09442482 0.18124337 0.43174326 -0.106785126 -0.023065671 0.42131916 -0.5847453 0.6219832 -0.52771133 -0.32212675 0.42145044 0.016655989 0.3263355 -0.2648847 -0.6236297 0.8563216 0.0709218 -0.79696745 -0.74383706 -0.2742906 0.15837575 0.34756163 -0.6550611 0.19951579 -0.6682991 0.4295358 0.4156715 -0.33928865 -0.25119993 -0.12908618 0.15984915 0.0786353 0.566784 0.111084126 -0.65968037 -0.419328 -0.27881053 -0.072838716 0.39038116 0.15462753 -0.14900906 -0.044035435 -0.47675678 -0.56368583 -0.2600789 -0.18836081 0.38425744 -0.02672297 -0.55919266 -0.3278363 -0.21952625 -0.12268295 0.21644908 0.07642156 0.24082269 0.12831537 0.27234712 -0.76569736 0.40221444 -0.1682795 0.9174363 0.51163197 0.5226642 -0.89634347 0.61937433 -0.06729337 -0.21684983 -0.31490412 0.4082095 -0.55574983 -0.104203396 0.532455 1.0237588 -0.0965803 -0.2531946 -0.1387869 0.89820504 -0.6466208 0.11539122 0.22557755 0.508214 0.61313325 0.32804394 0.7788903 -0.6488195 -0.048645977 -0.31170574 -1.1807343 -0.013242617 0.37205303 0.2768648 0.07746152 -0.39692923 -0.021745127 0.14892973 0.47101185 0.20036902 -0.66909206 0.09411956 -0.27563235 -0.13681667 -0.053008713 0.2982351 0.030663036 -0.70742667 0.532397 -0.770268 -0.17649987 0.6087164 0.95683414 -0.2859361 -0.022856938 0.22355758 0.45016253 0.113886334 -0.6688956 0.2831987 -0.1322098 0.11017064
program_committee_chair 0.46092328 -1.360444 0.5531731 0.26559198 0.6484557 -0.36492342 -0.50082046 0.046461973 0.054884706 -0.041162193 0.6079618 -0.9528108 0.4636032 0.23561975 -0.38655892 0.6446929 -0.36729145 -0.2856806 -0.36149997 -0.06727684 0.20693962 0.37319696 -0.4266715 0.12749052 0.77714175 -0.2029081 -0.51782113 -0.27418447 -0.24921227 0.02756624 0.4613279 1.3525866 -0.62712103 -0.42508712 0.29571238 0.027844934 0.15070978 0.0043598777 0.48441896 0.5680309 0.08195794 -0.16781178 -0.028701348 0.6619886 0.1353817 0.21413049 0.176333 -0.07973358 -0.58615613 -0.23991619 0.15240024 -0.5208605 -0.042726543 0.0951542 0.12636775 0.24451251 -0.06601779 -0.18339399 0.27591914 0.11166941 -0.2846269 -0.7074443 -0.361413 -0.08283076 0.25021806 -0.49907255 0.8281033 0.460667 -0.23028423 0.5089889 0.20174265 0.28413808 0.25193992 -0.78841156 -1.1583563 -0.6293694 0.23217572 0.15405211 0.38073593 0.92956424 0.12183039 0.026790977 -0.22713587 0.49467066 -0.42674845 0.14376998 0.43525243 -0.81587034 0.15197356 -0.3531316 -0.36451963 0.20816916 0.28600168 0.23004182 -0.7017166 -0.8606818 0.7010649 -0.12060093 -0.90233773 -1.1832256 0.16801085 0.038549043 -0.49693942 -0.29436982 0.029656017 -0.17537175 0.26502866 0.04722487 0.004988717 -0.8835656 -0.32166088 0.52200556 0.115234144 0.5995129 -0.6038416 -0.32591486 -0.41827336 0.070960894 -0.13355018 0.52880794 0.10463667 -0.6101469 -0.25991595 -0.5738444 -0.7341638 0.21025304 -0.46556276 0.14264736 0.1261032 -0.451733 -0.35950258 -0.12821373 -0.6900872 0.38485384 -0.18032557 0.70559686 0.065646544 0.21444595 -0.7086541 0.48114035 -0.30603823 0.8734087 0.7341271 0.66471785 -1.2997876 0.7222821 -0.5157616 -0.12800348 -0.14578955 0.52868253 -0.63860106 0.072504334 0.9567328 1.5180027 -0.25290492 0.12316274 -0.052419573 0.7861622 -0.31815994 0.028353965 0.38662818 0.1669773 1.0515599 0.5735971 0.5764026 -0.50174123 -0.10050761 -0.7462852 -0.6941421 -0.4151326 0.12881047 0.15238768 0.14309268 -0.37832654 -0.12034428 0.12162233 0.6259191 -0.15857977 -0.53021765 -0.17393136 -0.8491582 -0.34593958 -0.26030022 0.70867616 -0.5470245 -0.11034709 0.40435302 -0.6137588 -0.22487114 0.69856274 1.1152457 -0.6584671 -0.026011769 0.22640842 0.46751875 -0.24961714 -0.41666374 0.1928259 -0.1705312 -0.2820071
reviewer 0.52324706 0.5997361 -0.073135 0.010610087 0.8348641 1.0339054 0.38758215 0.49690607 0.2391232 -0.76295567 0.7712134 -0.6855211 0.5714418 -0.15663373 0.57766247 0.51026255 -0.3614376 0.21513078 -0.96729475 0.84089917 0.98335713 -0.048872065 -0.24733666 -0.18853317 0.3113496 0.10050353 -0.8207418 -0.16618998 -1.1317493 -0.57021433 -0.43177855 0.1963095 1.2863284 -0.35229868 0.744745 0.6485055 0.9108494 0.7961046 0.095171556 -0.4496201 1.122717 -0.0046060877 -0.022465656 -0.05765204 -0.42963687 0.1821337 0.33423418 -0.032135826 0.3265607 0.8720397 0.38508022 -1.0496479 -0.76190126 0.34495357 0.36442134 0.5549458 -0.066718794 0.28872713 0.30511716 0.55069727 -0.689065 -1.4195259 -0.17734195 -0.30932283 -0.18838081 -0.33972386 1.6438416 0.71101075 -0.44131464 0.92476135 1.1311607 -0.008854509 -1.0059029 -0.06660267 -0.39866266 1.083597 -0.736735 0.81172144 -0.736486 -0.08368805 0.2871978 -0.41730428 -0.7520723 0.23175551 -0.15569228 0.14433897 0.93481535 0.31651464 0.8131001 -0.21165949 0.41977718 -0.25397032 0.11853697 0.2615414 -0.70673835 -0.5272858 1.3425379 0.19056697 -0.6480913 -0.7719502 -0.17831041 0.2529643 0.40352574 -0.81747764 -0.6305076 -0.661673 0.85856706 0.90424085 -0.34260377 -0.7470644 -0.08662301 -0.11373436 -0.13321072 0.7796816 0.8340796 -0.26238695 0.017339692 -0.77256334 0.31306908 0.49139768 0.5943388 0.46815324 -0.6742414 -0.7930457 -0.8832921 -0.26462477 -0.5598067 -0.13040629 0.2802443 -0.77053726 -0.9472371 -0.89883965 0.12633103 0.8605192 -0.52526623 0.028680593 0.26801708 0.12810801 -0.83090115 0.2611095 0.024755517 0.961812 0.53897554 0.65816754 -0.58110374 0.89215624 -0.20661797 -1.0010762 0.15723902 0.20587601 -1.0804766 0.30209428 0.30041912 0.45724475 0.13288122 -0.73936594 0.0086303055 1.8300614 -0.6697413 0.29975697 0.29143006 0.8247688 0.51275647 0.11292379 0.92773527 -0.77683234 0.30470803 -0.19033886 -1.6815172 0.33924776 0.13283749 0.14998238 0.6828235 0.15123415 0.09642621 0.5447291 -0.19164726 -0.32973683 -0.5232847 0.120697625 -0.03629944 -0.22906144 0.4038628 -0.18763775 0.291928 -0.65407264 -0.042013217 -0.8534058 -0.18371186 1.0791545 0.2066938 -0.074746154 -0.42026561 0.38865748 -0.040788904 -0.47057393 -0.42768136 1.0183643 -0.14123188 0.0038687082
session_chair 0.06628266 -0.08581652 -0.123475164 -0.40557772 -0.40512675 -0.48247394 -0.07404094 0.37033907 -0.28757137 -0.2851876 -0.5143986 0.6076627 -0.27057973 -0.06559786 -0.056418072 -0.13110569 -0.19015124 -0.5278218 0.15077753 -0.093033165 -0.7392401 -0.10240695 0.2119724 -0.3250872 -0.56774396 0.013444568 0.60297894 0.48086497 0.16832805 0.05245568 0.17453949 0.27940723 -0.9799106 0.42909923 -0.45873532 -0.024057657 -0.059775822 -0.2521687 -0.06252203 0.12104112 -0.5721314 0.4059404 -0.029931176 -0.32776535 0.6761738 0.052253425 -0.36881632 -0.6904064 -0.6787982 -0.4462735 -0.2604875 0.9595445 -0.17156927 -0.37962592 -0.68621063 0.3350803 -0.20056675 -0.15379234 -0.14640482 -0.26402983 0.5200195 0.6824945 0.07527966 0.43219432 0.026346749 -0.14279552 -0.51773983 -0.09653736 -0.20830439 -0.73950833 -0.55122954 0.0065941275 0.4775592 -0.28505927 -0.35781857 -0.1818064 0.9231926 -0.7282331 0.6254716 -0.004575546 -0.26000664 0.096582 1.1788871 0.22617348 0.049134668 -0.14056875 -0.2588482 -0.25357533 -0.5841967 -0.4398542 -0.18465695 -0.586187 -0.30562708 -0.020472836 0.5719207 0.11791953 -0.50589013 0.08127349 0.27035233 0.1663094 0.21647184 0.034982312 -0.4585164 0.12975754 0.107631624 -0.27718443 -0.33457386 -0.86853325 0.56345695 0.32349536 -0.024849532 -0.70402 -0.21783054 -0.28857195 -0.38700956 0.3173245 -0.25460848 1.1419475 -1.0866405 -0.26410818 -0.8103385 -0.53487194 -0.0015249104 0.055097826 0.81865764 0.95434815 0.29218578 -0.27549565 0.433864 0.38803947 0.72366434 0.25729433 -2.3865796e-06 -0.3809238 0.05040037 0.3459816 -0.1432417 -0.22299117 0.2666041 -0.42751074 -0.26214305 -1.0192498 -0.34934515 0.21710946 1.036793 -0.79768056 -0.041536283 0.26074004 0.096300535 0.15998603 -0.6813966 -0.53939664 -0.4581444 -0.51933295 0.0654924 0.7032744 0.05951699 -1.0830885 -0.21808733 -0.59322405 0.8675999 -0.3027071 -0.32815713 0.08208675 -0.34479526 -0.37594825 0.32740542 -0.38053557 0.2832918 -0.108389646 -0.19242965 0.09575784 -0.30428892 -0.3354267 -0.5053295 0.26271203 0.2986351 -0.6448141 -0.024219561 0.19939399 -0.1739886 -0.3064641 -0.08444919 0.14223003 -0.65484774 -0.11125406 0.73566395 0.20951028 -0.44830242 -0.37825325 -0.4152594 0.073540635 0.55461395 0.028129736 -0.19816619 0.2902047 0.23955964 -0.44062603 0.5811387 -0.5296819
pc_chair 0.31171978 0.06669576 -0.13876121 -0.25679675 -0.4419152 -0.5163177 -0.03598528 0.51134014 -0.30459586 -0.3662103 -0.5216831 0.82082903 -0.30827174 -0.1245816 -0.05578462 -0.027050562 -0.20497157 -0.5191919 0.06411025 -0.033602804 -0.7553656 -0.110680796 0.13644733 -0.42400172 -0.51218706 -0.020870214 0.657401 0.41696042 0.052569598 0.052593943 0.31105736 0.3927812 -0.99187136 0.27145767 -0.4610611 -0.0635583 -0.012997063 -0.2264872 -0.07604033 0.09306944 -0.5906044 0.36630273 -0.07758988 -0.3171221 0.72332996 0.12556456 -0.38847324 -0.6671471 -0.7715216 -0.45914337 -0.16170406 0.9234086 -0.105266236 -0.34399182 -0.6518981 0.39217904 -0.24871498 -0.14249346 -0.10527225 -0.2197737 0.53389615 0.6266973 0.090791866 0.41115177 0.055014543 -0.1988979 -0.4517464 -0.1126918 -0.27216423 -0.6952373 -0.5249326 0.01693969 0.438454 -0.36263555 -0.4581133 -0.23168047 0.88521844 -0.6606555 0.6410153 -0.020027593 -0.23426181 0.06102977 1.1838766 0.23235263 0.06451932 -0.1358216 -0.2705624 -0.30219612 -0.55878747 -0.47747588 -0.23234196 -0.6040354 -0.36462277 0.05088021 0.57238746 0.050725497 -0.41928488 0.077688664 0.23378517 0.15936793 0.2927822 0.03934696 -0.37205133 0.11700771 0.1145004 -0.28761467 -0.2708986 -0.82568717 0.5369256 0.34143624 -0.07328544 -0.7502601 -0.21546401 -0.27476424 -0.37617275 0.2866807 -0.2748528 1.1456747 -1.0993451 -0.22768432 -0.8110808 -0.6032653 -0.06660485 0.043623988 0.81507784 0.9712948 0.23745735 -0.3110734 0.43816087 0.33605856 0.64750725 0.2595596 0.031238597 -0.29560745 0.07299722 0.40689197 -0.18237528 -0.1849503 0.21948938 -0.43289334 -0.30943853 -1.0112553 -0.29985514 0.25158376 0.9621222 -0.80258167 -0.0734748 0.25797763 0.17146161 0.17375115 -0.85289854 -0.56171656 -0.3594743 -0.47327042 -0.020084243 0.7252513 0.016920567 -0.99798495 -0.31281242 -0.6307941 0.9546912 -0.25538298 -0.19163138 0.12247997 -0.22345921 -0.4624719 0.3755536 -0.4928574 0.13270864 -0.045039564 -0.29541928 0.1459314 -0.24692787 -0.43297502 -0.46989217 0.4179875 0.379986 -0.7450663 -0.17090568 0.20821173 -0.22003242 -0.379123 -0.09626411 0.1280429 -0.7034188 -0.14501658 0.8557329 0.17932075 -0.50498766 -0.31430414 -0.35478124 0.03368407 0.6336409 0.09943875 -0.17781764 0.23145397 0.20459215 -0.42492703 0.73325557 -0.5719694
workshop_chair 0.14563029 -0.193099 -0.15761998 -0.40939716 -0.4173739 -0.61329603 -0.06598157 0.4917321 -0.22216007 -0.41938126 -0.51729274 0.84218335 -0.35678926 -0.056546338 -0.11522622 -0.108183704 -0.14624316 -0.5601405 0.042418063 -0.06295809 -0.6222701 0.007257737 0.18419188 -0.3909746 -0.43969095 -0.08688961 0.645391 0.40249908 0.0553991 0.031778514 0.38193175 0.35769233 -1.0784141 0.3168992 -0.4895292 -0.06734633 -0.041860398 -0.23335706 0.04508263 0.12183119 -0.49354118 0.3358344 0.090529576 -0.40304396 0.64196736 0.07832583 -0.3770162 -0.65521675 -0.6815333 -0.49592516 -0.20724192 0.91284525 -0.16815418 -0.34573314 -0.6999383 0.3759833 -0.1753585 -0.1426338 -0.109400064 -0.2017785 0.57801056 0.6539663 0.06887551 0.4366856 -0.04190569 -0.18847224 -0.34577838 -0.06727902 -0.31976634 -0.76990336 -0.5132192 0.05144367 0.53901964 -0.40530884 -0.4744029 -0.24815989 0.8897766 -0.67853975 0.5961814 0.08149308 -0.18875588 0.13481133 1.2310262 0.31105775 0.0094638765 -0.08550308 -0.317442 -0.29366788 -0.62514544 -0.53601015 -0.13089351 -0.59756255 -0.28081897 -0.021844042 0.56583923 0.14168613 -0.40175116 0.05337851 0.24575591 0.11541321 0.33820567 0.08891045 -0.3316101 0.13854907 0.074011706 -0.35051975 -0.29799378 -0.83948934 0.5495499 0.3559896 -0.08622719 -0.69376826 -0.29071006 -0.24513415 -0.37799308 0.30758715 -0.22995499 1.1064337 -1.1191355 -0.23069422 -0.81527615 -0.5777546 -0.034295972 -0.058674436 0.72114235 0.8377392 0.22317152 -0.25298214 0.43419203 0.32716814 0.62531424 0.2584142 -0.044843882 -0.3010155 0.1180728 0.4325531 -0.12970713 -0.22848734 0.26531065 -0.35235482 -0.30537957 -0.9839238 -0.27555016 0.16321957 0.7781216 -0.71029824 -0.036525674 0.23611243 0.1100528 0.20158055 -0.7201751 -0.5201627 -0.39040217 -0.38106796 0.04931538 0.70224446 -0.012781903 -1.0084507 -0.31516925 -0.61587244 0.8656228 -0.23798518 -0.24520364 0.17608772 -0.19952647 -0.3870195 0.3442534 -0.43494534 0.15692222 -0.091435105 -0.28495005 0.13300525 -0.25024205 -0.4409785 -0.43030855 0.28133854 0.34750062 -0.6135917 -0.09668902 0.117936835 -0.24609798 -0.39774638 -0.10854759 0.10674477 -0.6369711 -0.18980683 0.8241536 0.18442053 -0.41838723 -0.3143689 -0.35377908 -0.03155346 0.61582804 0.06820464 -0.17203368 0.15872404 0.17588007 -0.5117613 0.6639471 -0.58710605
meta_reviewer 0.9750629 -1.3216094 0.53542477 0.37893468 1.0826411 0.60689443 0.40876928 0.072301224 0.5874364 -0.19049802 0.7159026 -1.4808346 0.16531326 -0.005531323 0.54093796 0.8170579 -0.26382175 0.106276646 -1.0488753 1.1996169 1.3375046 0.24162029 -0.55093837 -0.2600276 0.7296728 0.022188831 -1.1437837 -0.24290764 -1.6358906 -0.76205105 0.07576338 0.33490512 1.2980748 -0.14563191 1.0667992 0.79495215 0.8905014 1.1351306 0.617289 -0.6739113 1.4288824 -0.29410797 -0.32026884 0.12722594 -0.75578487 0.25131592 1.0010409 -0.18079935 0.37016833 1.3400617 0.15708454 -1.2161735 -0.59675777 0.63737845 0.58960617 0.75742596 0.1661571 0.10599505 0.050300237 0.54748416 -1.0988678 -1.4392374 -0.34859022 -0.12133126 -0.2842626 -0.5954232 1.7614615 0.78662205 -0.29956156 0.8348234 1.4032791 -0.26654738 -0.9188664 -0.13987355 -0.15922274 0.7314966 -0.8184832 0.69459385 -0.61475134 0.29921 0.5966126 -0.4074606 -0.66017014 -0.18028687 -0.11273302 0.14906582 1.1080545 0.4459554 0.8745376 -0.017638322 0.5640598 -0.30408153 -0.14689417 -0.1601615 -0.3710763 -0.4010935 1.3447021 -0.17768797 -0.57710105 -0.42469186 -0.024238259 0.13661455 0.5233677 -1.0840956 -0.46680516 -0.17182466 0.43945423 0.84326196 0.059748277 -0.5387822 -0.09955653 0.061233155 -0.4823582 0.88855565 0.91441315 -0.23973516 0.18444556 -0.327343 0.36491808 0.25080812 0.15008456 0.3758892 -0.6408798 -0.8404952 -0.5982768 -0.7002871 -0.19783236 0.2644575 0.40049896 -0.29476124 -1.0164057 -0.5157824 0.38132155 0.45418057 -0.20321588 0.18585199 0.4213349 0.1727817 -0.6262026 0.2025174 0.37638453 0.82769793 0.7534768 0.07815843 -0.28480428 0.86742073 -0.29694167 -0.77552307 0.22000602 -0.13090283 -0.8603575 0.3852976 0.13885732 0.13833058 0.19638501 -1.0680661 0.0077625555 1.7634294 -0.33665353 0.3715605 0.08257471 0.9959868 0.51413584 -0.11912014 0.9560458 -0.549461 0.31634492 0.35610148 -1.605026 0.6149043 -0.0031970856 0.11499084 0.70837474 -0.007926801 -0.36071348 0.54399514 -0.087406985 -0.3525597 -0.042795766 0.29979172 0.060453646 0.23196055 0.4704978 0.043747235 0.62584907 -0.8827613 -0.64248836 -0.3441854 -0.2601198 1.0318179 0.55548024 -0.06351448 -0.60974723 0.17403363 0.02327795 -0.33030367 -0.457848 0.7778092 -0.18388757 0.22023845
author_not_reviewer 0.33134016 0.4295287 0.09474459 0.5460342 0.14262576 1.0565393 -0.47493905 -0.03738632 0.08773094 -0.64771765 -0.19510244 -1.0476488 -0.11391401 -0.17448118 0.6335627 -0.6213515 -0.09478729 -0.010074823 -0.012664836 -0.5272333 0.33715788 0.91004133 0.29616338 0.24622509 0.084578104 -0.25690144 -1.0695904 -0.25000012 -0.8836737 -1.3836753 0.5000031 -0.28061005 0.54646564 -0.38004625 0.912524 0.7587847 0.23919559 1.1625636 0.89036447 0.9883557 -0.19188973 -0.0008999402 0.5008865 0.70007986 -0.792925 0.30635834 0.20133846 -0.83401203 0.43070716 -0.51505077 -0.37713465 -0.26165318 0.33400893 0.08625145 0.94111174 0.8647723 -0.52629423 -0.22148116 0.073725395 0.952761 -0.49727938 -0.4594958 0.10972855 -0.23285186 -0.4393459 0.50455797 0.60910046 0.09156718 -0.41757655 0.039695814 0.884357 1.1195571 -0.87457037 0.5902669 -0.5362708 0.5885461 0.62556535 -0.06596632 0.17283937 0.22231156 0.9419811 -0.6595766 0.5571869 0.08987127 -0.08796874 -0.19514662 0.30339783 -0.09937055 0.17449796 0.2574094 -0.6674761 0.6041004 -0.010395197 0.6948363 0.22710368 0.295482 0.1750872 0.45077968 -0.77514434 -0.14213413 -1.2140074 0.28913182 0.9623208 0.44202712 0.41634786 -1.2905599 0.18801121 0.47492695 -0.47139606 0.35858184 0.54911804 -0.6498852 -0.01766433 0.24309821 0.42752427 -0.9882774 -1.0872319 -0.13432273 -0.32800055 -0.08652863 0.0701433 0.5055019 0.24067871 0.14182027 -0.82404464 -0.18400246 0.16641004 0.5323689 -0.10664255 -0.3310563 0.22695392 -0.38833475 -0.10553619 0.27393538 0.39907843 -0.3200852 -0.040005818 -0.326282 -0.9516242 0.20807695 0.07247656 1.0414973 0.8043661 0.8277483 0.1813631 0.14299671 -0.22411576 -0.5613529 -0.3699654 0.54145485 -0.8068987 0.09341906 0.42280024 0.5298876 0.32538438 -0.53750134 -0.74127644 0.5172507 -0.46172497 0.036268085 0.82655203 0.8886981 0.7427952 0.09783985 0.65369725 -0.45934406 0.9376072 -0.074780114 -0.895376 -0.3225543 1.0757415 0.87227756 -0.51651996 -0.9570317 -0.1704509 0.1613065 0.34705198 0.23550275 -1.9862701 0.069141984 0.014884738 -0.9778151 -0.37530965 0.69781464 -0.0779527 -0.7742899 1.172031 -0.73432 -0.31244436 0.42990747 0.7973604 0.4416247 0.17329802 0.80509543 0.36056462 0.10437332 -0.38849166 0.27216 -0.96857464 0.30450284
abstract -0.82471174 0.7468174 -0.1656921 0.31416687 -0.16508712 -0.4779537 0.8827274 0.43595284 0.058818243 -0.87105674 -0.21900529 0.19012107 1.2158257 0.34136474 0.8311375 -0.40030316 0.6556791 0.33413872 -1.029992 0.75776416 0.50271875 0.38664827 0.82600343 0.87240064 -0.7458339 0.42957848 -0.38227138 0.03938636 1.1927589 -0.3416237 -0.065081455 0.31663388 0.94720244 1.0480165 -0.2951021 -0.2520921 -0.8373271 0.89242345 -0.3294319 -0.24212621 0.34661993 0.20648216 0.5788958 -0.26666132 -0.57134145 0.032757718 0.86322457 0.49486738 0.016746566 0.090576895 0.60222095 -0.40780666 -0.9980238 -0.13287657 -0.27477455 0.74281055 -0.07978758 0.8916629 -0.7805189 0.97693634 0.3545227 -0.029445088 1.2549509 0.029137082 1.1242625 1.7762923 -1.123656 -0.8247507 0.6148617 0.23955111 -0.046634093 0.8287907 -0.13470148 -0.09731333 0.875668 -0.6081296 0.5498736 1.0681474 -0.28045577 -0.07532111 0.10764115 0.18327087 0.28853938 -0.42844224 0.08136917 -0.43127215 0.12527367 -0.029220048 -0.32964572 -0.5051154 -0.5226032 -0.4764243 0.5445415 -0.5666088 1.0093472 0.6576396 0.091552004 -0.6804477 -1.2383661 0.35207912 -0.25263482 1.1357642 -0.51774883 -0.60095394 -0.34739485 -0.030026484 -0.012265844 -0.48956195 0.92507696 0.8010653 0.31328765 0.96135056 0.19683659 0.19062245 0.4630209 -1.2084304 0.91701245 0.33831537 0.56510925 -0.0471206 0.7219739 0.022744268 0.49601677 -0.60806006 1.1126077 0.14659758 0.36061102 -1.2693304 -0.34034666 -1.3886057 -1.1797268 0.09044751 0.47089395 -0.8335543 -0.15152809 -0.71231055 -1.3186179 0.75727886 -0.19626893 -0.12252967 0.9217288 -0.7489577 -0.6926694 0.04378264 -1.3433238 -0.028683078 -0.12031444 0.031455643 0.37488702 0.117471546 -0.5345557 -0.20724577 -0.8755661 -0.32046238 -0.07391936 0.30842352 -0.31474334 -0.70971227 -0.77713424 -0.2674048 -1.1044779 -0.12573384 -0.28061974 -0.033075754 0.7117525 0.4076013 0.06458821 0.4832686 0.003300668 0.4403722 -0.35695946 -0.884135 0.17919977 0.37420514 1.047994 0.55197334 -0.5259778 0.573676 0.41789144 -0.44105107 1.3817338 -0.014677303 -0.2834742 -1.1765739 0.62782735 -0.44113553 -0.06969671 -0.73940355 0.68421584 0.08051665 -0.05970244 0.062140565 -0.5721824 0.093705185 0.33459604 0.5887203 -0.1937725 -0.24014479 0.05279222 -0.62180644
tutorial_chair 0.23208548 0.1019423 -0.18927862 -0.25109142 -0.4087771 -0.52097905 -0.07702541 0.49831316 -0.19712397 -0.42505053 -0.47585127 0.7219005 -0.39497954 -0.008857775 -0.096782014 -0.09173229 -0.16733721 -0.5203335 0.08435106 -0.097129084 -0.58515006 0.06012558 0.20581405 -0.40943545 -0.37977946 -0.10126383 0.64884406 0.36305872 0.13827841 0.10334559 0.3170782 0.2653055 -0.9721685 0.3406942 -0.44268844 -0.09914953 -0.02322536 -0.27186224 -0.04113836 0.10948886 -0.5038646 0.30000335 0.05235983 -0.36786467 0.69552827 0.02322165 -0.40201896 -0.6836255 -0.6903996 -0.52529913 -0.20832534 0.9546398 -0.11434753 -0.3937112 -0.62894744 0.3465593 -0.2016175 -0.13434276 -0.1284262 -0.2369343 0.555874 0.6630398 0.054091193 0.3934437 -0.06787721 -0.16150002 -0.4469765 -0.1009979 -0.35535517 -0.7871987 -0.53148556 0.04455053 0.554069 -0.4337579 -0.4728805 -0.21778439 0.79836816 -0.7075751 0.6548153 0.0669037 -0.21625312 0.09883515 1.1572909 0.302905 -0.00028949737 -0.083601736 -0.2553074 -0.25690234 -0.6769144 -0.47009942 -0.1352588 -0.6720403 -0.30332744 -0.027486043 0.59970295 0.22016375 -0.38590327 0.09660167 0.29155833 0.1815368 0.366012 0.09387799 -0.3302958 0.1892331 0.052488614 -0.25773782 -0.42143506 -0.81803524 0.5961267 0.3851728 -0.03509603 -0.807508 -0.29413798 -0.24923968 -0.38714886 0.30909607 -0.24668597 1.2026867 -1.1987807 -0.3040419 -0.841233 -0.555694 -0.12010604 -0.07168409 0.7600126 0.9033748 0.19575407 -0.25161695 0.49560192 0.40607598 0.67439336 0.3262401 0.010652393 -0.3167977 0.09566963 0.44580898 -0.14994046 -0.17440958 0.32703272 -0.43827966 -0.29737738 -0.9764483 -0.3040623 0.14435066 0.8433764 -0.7136553 -0.11670197 0.20540409 0.19949701 0.17030936 -0.76833844 -0.5073621 -0.39031217 -0.44207886 -0.01232806 0.6867758 -0.016650667 -1.0436766 -0.28561103 -0.6562021 0.8517167 -0.23216538 -0.17812279 0.14382721 -0.208449 -0.37417883 0.3559339 -0.40889695 0.15988584 -0.07763126 -0.29976308 0.17125002 -0.22781146 -0.43263984 -0.44049755 0.25308686 0.34333432 -0.6447721 -0.0729877 0.12572317 -0.1931492 -0.42278478 -0.10577559 0.11632498 -0.6575524 -0.13208345 0.80845207 0.24109693 -0.37106478 -0.30928388 -0.36081412 -0.001327651 0.6055725 0.09881866 -0.13568796 0.12755415 0.24286272 -0.45121768 0.64384323 -0.5198041
paper_abstract 0.66473055 -1.6296134 0.74432623 -0.98799574 0.74368095 0.2034525 -0.8736863 -0.04034193 -0.7141826 1.263306 -0.48647252 -1.0390973 0.56783867 1.033644 0.07001209 -0.32489294 -0.7715078 -1.2356244 0.3512688 -0.096680984 -1.0853893 -0.48529264 0.9890942 -0.09492869 -0.8332654 -0.08483043 0.38571826 -0.63244486 -0.004244046 -0.5822464 0.42127615 -0.15790552 -0.012269758 -0.5944825 0.76284754 -0.618603 0.77169454 -0.052117243 0.45734957 -0.90221405 0.63920766 -0.38407767 0.51237184 -0.5723992 0.36858 -0.6163226 -1.1629118 0.07880187 -0.0046531134 0.067507915 -0.936199 -0.37879154 0.0898908 -0.36805367 0.114782296 0.055836592 0.5562649 -1.0438131 -0.5432239 0.6453202 -0.30415845 0.12494877 -0.5611352 0.45239112 -0.33769825 -0.12664963 0.43696776 0.22719981 0.07230192 -0.52131313 -0.4518369 0.19300401 -0.052738488 -0.20582823 0.05962268 -0.20442049 -0.14184721 -0.3996362 -1.2929771 0.031055601 -0.65463203 -1.236479 -0.92483884 -0.28384098 -0.16055155 -0.37090927 -0.47361374 -0.12765983 0.77235985 0.95613563 0.30390024 -0.27015465 0.14322142 -0.33604586 -0.1851914 0.086096734 0.07722103 0.4152823 -0.3825434 -1.5725001 -0.8048471 -0.86885536 -0.090163335 -0.56848085 -0.41130313 0.11846048 0.77389765 -0.1421801 -0.35928923 0.15389943 -0.43769068 -1.3014281 0.09998896 0.30957913 -0.410574 0.8344177 -0.07724866 -0.5841089 -0.029170476 -0.68570983 -0.0922608 -0.82929224 0.16087821 0.33943576 -0.6574217 0.5213965 0.38602442 0.01889907 0.39753598 0.053183623 0.6794014 0.7308375 0.7212371 0.7559271 0.77687943 -0.026059734 1.2696614 0.0013827623 0.22838752 -0.09612553 -0.1680521 0.8984844 -0.10459807 0.34943852 0.20294987 -0.64023465 -0.6548314 -0.16395257 0.56658065 0.048254896 0.72236997 0.3310335 -0.28436443 -1.5354608 0.6689883 0.945463 0.13683288 0.5954981 0.32057756 -0.0371183 0.18155807 -0.061757363 0.66706246 -0.45349202 0.22871763 0.13872656 0.054292727 -0.78361887 0.056675743 0.668016 0.39811224 0.5639043 0.3935873 0.7098366 -0.06202053 -0.111328125 -0.43892595 -0.3218264 -0.72546023 -1.2150712 -0.348742 -0.62153476 0.28077522 0.26193044 0.5006449 -0.6455116 -0.4968771 0.050786853 -0.72494084 0.3792058 -0.28441867 -0.23664966 -0.18595928 0.6356824 -0.20585568 -0.53518784 -0.12672238 -0.46119207 -0.8622478 -0.62487864
co_author 0.3941282 0.41701248 0.09132826 0.6275572 0.15295263 1.0771704 -0.41986406 -0.055445943 0.12441569 -0.65652364 -0.16969882 -1.0875655 -0.028243646 -0.1623278 0.669287 -0.56397253 -0.09825412 -0.0063320072 -0.061574616 -0.43992102 0.4218 0.90233743 0.3117252 0.28445333 0.11600366 -0.23377426 -1.1139492 -0.2613704 -0.8903706 -1.3685907 0.3908445 -0.37449026 0.6741592 -0.30289185 0.9122696 0.7650732 0.29074854 1.1756929 0.90119916 0.8832704 -0.058555216 -0.037379466 0.5067888 0.6686559 -0.80278593 0.3148015 0.22800106 -0.7810076 0.5338288 -0.39945194 -0.34334683 -0.31896773 0.32786533 0.113843314 0.9663696 0.84616345 -0.5120473 -0.2288479 0.062173624 1.010705 -0.48763895 -0.5315357 0.12880108 -0.2585519 -0.43079713 0.5296232 0.7200145 0.16860814 -0.42220291 0.08751729 1.0047679 1.0399157 -0.94927 0.60441244 -0.4510125 0.6934649 0.51059794 0.009104115 0.1307875 0.18872735 0.9485649 -0.6798203 0.47295126 0.057115447 -0.16399707 -0.2185601 0.36463487 -0.0475067 0.20289996 0.2845332 -0.57413894 0.49994126 0.030103507 0.6652992 0.18930842 0.3270572 0.23631187 0.46862254 -0.74125904 -0.12258812 -1.1937153 0.32576483 0.95357734 0.3100633 0.35099465 -1.2842416 0.20855589 0.5538022 -0.48444113 0.3198164 0.57752913 -0.6741 -0.05722867 0.2054969 0.46295804 -0.9682388 -1.0400331 -0.20965748 -0.25161767 -0.00757503 0.14821094 0.6000975 0.1886777 0.091750465 -0.8513406 -0.23833366 0.09154421 0.48439947 -0.10515305 -0.36765015 0.13879432 -0.4294688 -0.05086494 0.24676408 0.3693999 -0.30101162 0.018986123 -0.34927142 -0.9399331 0.23097038 0.106416486 1.0084612 0.7819037 0.7997472 0.1928181 0.1762939 -0.20433836 -0.5664801 -0.4165487 0.52120316 -0.77367866 0.1363448 0.38413793 0.50828886 0.37461585 -0.54528016 -0.69352394 0.621814 -0.48860127 0.0768015 0.75810754 0.85549784 0.6817057 0.032160435 0.6570978 -0.44057345 0.9159647 -0.013233374 -0.9450258 -0.28841615 1.0455893 0.7950788 -0.43073863 -0.85463715 -0.18505998 0.062837265 0.27976558 0.2955507 -1.8263235 0.06948673 0.090086445 -0.91599184 -0.33031675 0.60448265 -0.029924233 -0.7891758 1.0707583 -0.76655114 -0.24908246 0.50337976 0.6800523 0.45294523 0.08192504 0.7772716 0.31939417 0.070872575 -0.37713408 0.33676925 -0.9945732 0.3415927
decision -0.030037992 -0.3110481 -0.027033672 0.1780888 -0.06524181 0.5874522 0.4871197 -0.44185188 -0.3874103 0.45726308 -0.22900338 -0.54927254 0.4161829 -0.3467566 0.040127322 0.09075142 -0.06409536 0.22048582 0.46921194 0.1435306 -0.5183327 -0.8820922 -0.41602078 0.42267993 0.19443546 0.21443897 -0.26126835 0.058189925 -0.10208289 -0.0057084505 -0.31823593 0.22110869 0.43793955 -0.49268842 -0.026659142 0.6711814 -0.19027582 0.06147021 0.57333446 -0.4448363 0.23924738 0.26206517 -0.21008901 0.09149306 0.2124183 0.2771697 -0.15148105 0.053261045 -0.46128818 0.23777658 -0.065515205 -0.29490373 -0.5400883 0.5162401 -0.4326825 0.11835706 0.28070578 0.007252627 0.44209287 0.21389204 0.3084055 0.29227188 0.85095906 0.3008601 -0.10718728 -0.032887474 0.06416664 -0.053362638 0.15246095 0.6985568 -0.45926774 0.31537446 -0.6436627 0.6085751 0.22238685 -0.5926224 0.6171939 0.072204664 -0.077835634 -0.09673436 0.08310989 -0.43730617 -0.537294 -0.45378062 0.5696161 -0.050974496 -0.24106514 0.31021383 -0.38919437 0.46299002 -0.30108386 0.56882 -0.23172337 0.031756427 -0.39131868 -0.6241918 -0.5812852 0.44730946 -0.30859676 -0.22056907 -0.4476726 -0.2741467 0.26556638 0.7674173 -0.046549145 -0.0755943 0.20522839 -0.3106779 0.30330518 -0.7927622 0.052544113 0.44591993 0.52193296 0.21530981 0.43130344 0.04493438 -0.30687687 -0.13569082 0.2727672 0.33528996 0.55313265 -0.05828903 -0.30290246 -0.17501906 0.30849597 0.3454344 0.19618313 -0.30075285 -0.33259195 -0.27142325 0.25055733 -0.31960294 0.13352382 0.68173563 -0.09649726 -0.062332388 -0.0044505713 0.18423192 -0.2543058 0.32900685 0.06386387 -0.031679094 -0.05844313 0.23551132 0.5554186 -0.26702046 0.07149417 0.21394472 0.30241022 0.16350202 -0.086139925 0.103258 0.25084904 0.064302914 0.016974764 0.17247076 0.6306703 0.41432554 0.35808435 0.069236584 0.34595004 0.112138204 0.13026765 -0.13721748 -0.2002102 -0.33779114 0.2356223 0.20237343 0.44536534 0.06271215 0.17796454 -0.13581799 -0.4689853 0.24477443 0.22550973 0.38406944 -0.17658237 -0.32384 -0.1912559 0.13987793 -0.56409854 -0.21970958 -0.04290296 0.2998686 -0.39587688 0.21117127 -0.04304673 -0.2634258 -0.6378231 0.109895326 0.091139145 0.028279597 -0.07434577 -0.268592 -0.030139554 -0.01551913 -0.14075865 0.1376502 0.03765493 -0.20456605
paper_full_version 0.4968513 -1.6860639 0.70199984 -0.983066 0.7066299 0.23213305 -0.8721234 -0.12643033 -0.6874738 1.1675551 -0.4824862 -1.0371768 0.62027884 1.004 0.18620284 -0.39067003 -0.88365245 -1.3818614 0.25488076 0.068023 -1.114493 -0.5823305 1.0603824 -0.040777028 -0.99857914 0.031718932 0.40798357 -0.6733156 -0.06695511 -0.58389765 0.3138791 -0.10629011 -0.008657379 -0.43677786 0.7557162 -0.6321479 0.76967454 0.090510726 0.516718 -1.0337969 0.6871138 -0.2523708 0.54067713 -0.60921997 0.41271096 -0.5762378 -1.1798879 0.10412705 0.00073837664 0.14568995 -1.0297104 -0.35066447 -0.06712705 -0.43368503 0.011240278 0.068743154 0.59374034 -1.0309662 -0.53479993 0.6518104 -0.36655954 0.14006433 -0.4950921 0.479906 -0.2541168 -0.12851907 0.3909431 0.21489255 0.16616945 -0.5727213 -0.4718527 0.21329875 -0.013215314 -0.2982688 0.17895804 -0.1978863 -0.1625646 -0.32251716 -1.3472121 0.06319706 -0.6915869 -1.1083621 -0.8821476 -0.34386182 -0.27667066 -0.40388644 -0.5496981 -0.15232988 0.8847427 0.9456502 0.30612862 -0.31584367 0.14831568 -0.40727645 -0.1470739 0.13520917 0.05098392 0.3719808 -0.37009194 -1.590923 -0.900874 -0.904274 -0.10914516 -0.72391266 -0.34975532 0.14847532 0.7385221 -0.18963501 -0.37352818 0.17980984 -0.35461208 -1.3170878 0.07750392 0.2644955 -0.36870316 0.6811339 -0.02243817 -0.5665628 -0.01087343 -0.68231463 -0.056637194 -0.8420454 0.2837326 0.40431014 -0.62859297 0.5579392 0.4343277 -0.02590875 0.30061308 0.07155009 0.7217867 0.671499 0.7629465 0.75033957 0.74479616 -0.15193723 1.2102411 0.040063143 0.32412377 -0.08197034 -0.04390352 0.8837059 -0.24224019 0.3138606 0.12255382 -0.7157232 -0.6280408 -0.10840019 0.5332087 0.0038292445 0.78337634 0.20543642 -0.36316425 -1.6159819 0.7490624 0.9860328 0.18015839 0.56904024 0.18182975 -0.14294797 0.14487797 -0.13726252 0.6445463 -0.4340094 0.17816323 0.19647154 0.032427687 -0.89238155 0.053641997 0.6591776 0.45014945 0.53960544 0.44184187 0.7588005 -0.008564927 -0.10373472 -0.4880741 -0.22548962 -0.6266432 -1.1768714 -0.32183722 -0.61751544 0.28757468 0.15958014 0.53303045 -0.65955937 -0.5777247 0.02637917 -0.6955079 0.43765712 -0.38454556 -0.2697465 -0.21945922 0.62101185 -0.22833146 -0.47924164 -0.12176374 -0.47913787 -0.9015478 -0.5480193
invited_talk -0.075916365 -1.6253233 0.39313334 0.30530053 0.82051885 0.44158837 -0.33502296 -0.6143715 -1.2303562 0.92180437 0.55251753 -1.932153 -0.07396406 0.14129907 0.42631483 0.6129947 -0.7101923 -0.2754263 0.20509216 0.83475775 -0.55212647 -0.79173356 0.6371637 0.4239141 0.34073368 1.0407608 -0.17056355 -0.3455341 -0.49622133 -0.14721616 -0.8335749 0.44738206 0.39823943 0.441921 -0.08901729 0.72997177 0.39224702 0.39403924 1.2393347 -0.67261523 0.6237056 0.79348946 -0.65457207 0.40703192 1.2923622 -0.010009995 -0.19735159 -0.8123378 -0.074064605 0.32631117 -0.4962888 0.49782628 -1.3829796 -0.7305632 -1.9265325 0.4344067 0.2729535 0.06787393 0.6125684 -0.24856858 -0.44226536 0.56508684 0.7207831 0.24794133 -0.18095939 -0.80322886 -0.39352828 -0.026276106 0.12000746 0.28048453 0.40011126 -0.27486628 0.29343525 0.38463947 -0.08275759 1.1157506 -0.96192664 0.76271784 0.37711325 -0.30660665 -0.5662415 0.34811282 -0.31057686 0.32294932 -0.8890342 0.083388574 -0.25588813 -0.006830522 0.48860407 -0.30872962 0.32386506 0.44129643 -0.30886325 0.6178487 -0.2604279 0.056120656 -0.43410844 0.02673571 0.3525932 0.77773064 0.51493543 -0.28131437 -0.36679155 0.31933576 0.44515747 0.047363468 -0.8754048 1.1698053 -0.30451664 -0.50482255 0.42691374 0.21925928 0.16085507 -0.19403224 0.2793459 -0.7256353 -0.36232966 -0.28113833 -0.028569205 0.09857351 -0.4070163 0.29789847 0.038470518 0.7073885 -0.06842596 -0.17463551 -0.057082623 0.04826898 0.06705152 0.90154946 0.3539101 -0.34897968 -0.5735152 -0.56849074 -0.6219872 -0.38526765 -0.10236014 -0.06933926 0.56632006 -0.22514682 0.2665214 0.20275381 -0.5696915 -0.29242977 0.4352374 0.7788705 0.16276596 -0.25490335 -0.50327 -0.42453814 0.46846038 -0.34712133 -0.19166437 0.4565081 -0.5067952 0.31825987 -0.63615924 -0.5754848 -0.50513506 -0.13087885 0.1596581 -0.18135887 0.21385282 0.1323513 -0.7033058 0.7988538 -0.2808676 -0.24315627 -0.011325317 -0.14113238 -0.43928492 0.50446594 0.08010862 0.19725661 0.06903533 -0.695628 -0.064431615 1.0251809 0.59547716 0.29945529 0.6345762 0.15760851 0.13956422 -0.1578917 -0.3112155 0.86307275 0.29793906 -0.55903333 0.93521565 0.17681675 0.22357808 0.29957193 0.057560086 -0.6881219 -0.10561016 -0.14419174 0.20241664 -0.122927435 -0.22193052 0.6701917
contributed_talk -0.05201688 -1.5570606 0.36784604 0.3303573 0.8631915 0.53142214 -0.31743276 -0.67592406 -1.354604 1.0057627 0.5564006 -2.082227 -0.085970074 0.15733162 0.4191214 0.63483053 -0.732223 -0.29320997 0.21201603 0.87006736 -0.56402874 -0.8522703 0.6090041 0.38219848 0.32068047 1.0193745 -0.12847507 -0.31824288 -0.4655926 -0.11580438 -0.8235659 0.4612841 0.3663838 0.42923814 -0.0339477 0.7209751 0.43359593 0.37569433 1.2084539 -0.65446895 0.6001518 0.7619434 -0.68215424 0.42745188 1.3332953 -0.014698961 -0.17869 -0.74578357 -0.08343687 0.3297178 -0.4734208 0.44855627 -1.4004028 -0.7036783 -1.9030052 0.40330392 0.29471698 0.10589136 0.6287057 -0.24808854 -0.4645009 0.5748133 0.78948903 0.29377267 -0.15067728 -0.8329889 -0.39024112 0.030323988 0.13885076 0.28506032 0.3622596 -0.23451802 0.2111923 0.37583977 -0.039651524 1.1208355 -0.89693916 0.7007156 0.3814279 -0.33769998 -0.5629161 0.29076928 -0.2913964 0.30361605 -0.8908528 0.019059371 -0.27750674 -0.044873506 0.5593073 -0.25890777 0.31576246 0.45656773 -0.35903713 0.5838283 -0.25197244 0.06585545 -0.4775922 0.028501328 0.3500138 0.7858796 0.5255664 -0.3336274 -0.35905465 0.33148795 0.39294457 0.02176643 -0.8097045 1.1347438 -0.3092203 -0.53248155 0.42035344 0.17204894 0.133495 -0.1722863 0.3194857 -0.7597963 -0.42108694 -0.21053924 -0.04482539 0.10645095 -0.43394366 0.30330807 0.019707356 0.68963504 -0.023885576 -0.0992601 -0.023011165 0.05825024 0.092380285 0.8572437 0.36863136 -0.40925834 -0.5159288 -0.5202395 -0.62455904 -0.39817086 -0.11905875 0.0045556747 0.54096675 -0.18919519 0.25029102 0.21389957 -0.5358114 -0.29450113 0.5142195 0.7090293 0.18221094 -0.2429661 -0.48361984 -0.39838406 0.45712727 -0.2786809 -0.20818055 0.4531351 -0.47957453 0.37087587 -0.6192073 -0.55603784 -0.5065268 -0.1801955 0.1753596 -0.15808916 0.2343021 0.12460757 -0.6962879 0.7790232 -0.30990165 -0.329913 -0.024501825 -0.11789945 -0.43575197 0.48311377 0.076151624 0.22442427 0.08694452 -0.6541295 -0.095025405 1.0210842 0.64319825 0.3037081 0.6764734 0.12946628 0.17341997 -0.2015144 -0.3037802 0.83484817 0.28935573 -0.60738623 0.9002555 0.2106764 0.2356059 0.35187882 0.071258776 -0.6755238 -0.07610567 -0.086643256 0.2099455 -0.052338872 -0.2391996 0.64569193
meta_review 1.1743221 -0.5210724 1.5523072 -0.39961043 1.0053425 -0.03213166 -0.56262624 0.294976 -0.7220177 1.0906913 0.23316646 -0.4787873 0.52229077 1.4599938 0.6685476 -1.3201573 0.104856 -0.4415294 0.47144103 -0.41731986 -0.76068735 -0.12073669 0.25220525 0.9389029 -1.3739132 0.033736695 -0.15714677 -0.50927866 0.4584666 -0.49718237 0.69844025 0.6160524 -1.3437033 0.44952285 1.6109082 -0.24535315 1.3889891 -0.22022842 0.26982024 -0.28157255 0.8639325 -0.36094683 -0.23979194 -0.39955312 0.776443 0.35470274 -0.85553634 0.23733783 0.96209776 -0.3154091 -1.0196285 -0.3648618 -1.3794572 -1.1218212 -0.5570384 0.53705883 0.344856 -1.2031797 -0.8158246 -0.32868147 -0.4674026 -0.8270648 -0.73558354 1.0445336 0.078839466 -0.5756964 -0.6118477 0.33894268 0.1143097 -1.1118027 -0.5127931 -0.051768556 -0.41211554 -0.89679223 -0.4494433 0.08506445 0.77821153 -0.39118332 -1.4102073 -0.37840557 -0.909559 -1.2363232 -0.608479 -0.072697505 0.11280899 -0.1929675 -0.21977001 0.29771945 0.6001902 0.75887 0.5579823 -0.6235939 -0.4324774 -0.54093087 0.9130192 -0.40745804 0.96416587 0.11880736 -0.74416125 -1.1532094 -0.54958487 -0.57840055 -1.2770048 -0.84999794 -0.49259555 -0.2828193 1.8975569 -0.5051695 -0.33255348 -0.8056893 0.44913688 -1.1565403 0.9990904 1.2006562 -0.28618026 1.332765 -0.065256216 -0.43932986 0.9960823 -0.24128543 -0.6825591 -1.1092719 0.34960866 0.5350212 -0.024924915 0.17402624 0.33707005 -0.19732562 1.0355455 0.013506817 0.85967195 0.05320584 0.07482032 0.67583 1.0648644 -1.5306385 1.5433376 0.012286448 -0.9905978 0.13307406 -0.28849572 1.3806981 -0.9469021 1.0606557 0.19304669 -0.87648916 -0.87769085 -0.61730635 0.40852964 -0.8444863 -0.28310496 0.70234376 -0.8149066 -1.3630884 0.56906384 0.2695622 0.45811808 -0.20499724 1.240151 -0.36222705 0.39454147 -0.1854808 0.5473652 -0.1371921 -0.51142895 0.84433794 0.20490973 -0.97891736 -0.339048 1.5889896 0.026442166 0.43314832 -0.57717746 1.1507767 -0.15402293 0.044235602 -0.6069596 -0.6656476 -0.114465564 -1.081357 -0.5624289 -1.3346521 0.19322531 1.6255186 0.81032324 -0.7090308 0.17456122 0.103472844 -2.2103107 0.20981748 -0.14247279 0.38764745 -0.26488647 0.20775835 -0.14073029 0.10177286 -0.38943675 -0.043089412 -1.4665041 -0.69386667
assigned_paper -1.1546648 -0.27341843 -1.0845655 -0.25705487 -0.83928925 -0.20935057 -0.22396095 -0.5449299 1.2613087 -0.8351902 -0.37216243 -0.42792237 0.3063467 -0.25371197 0.49814764 1.0568613 -0.122076824 -0.3283965 0.6555713 -0.19668177 0.63210803 -0.03032014 -0.5910992 0.35029617 0.68294185 -0.34709004 -0.5471927 0.37515533 0.31361157 0.8092239 -0.05381774 -0.75409997 0.7623799 -0.4147724 0.23759992 -0.37875244 -0.41509625 -0.054882813 0.777533 -0.0060375645 0.114891686 0.070256814 0.45170918 0.47311237 -0.122863464 0.13759995 -1.0658273 0.6123653 -0.31841314 0.37595534 -0.33034286 0.08961206 0.31716108 1.1978239 0.1331845 -0.26343933 -0.14643373 -0.52843046 -0.56150573 0.90261734 1.0338651 0.05493513 -0.14402364 0.37188154 0.43178996 0.49852157 0.60111886 -0.67600757 -0.15555124 0.6202362 0.24111806 -0.10023662 1.0170804 0.7614744 0.39504212 0.3888726 0.09354132 -0.030593148 0.4530517 0.6631759 0.94534296 0.10735253 0.30774164 -0.18616295 -2.0157561 0.23983257 -0.16566487 -0.09825949 -0.5825803 0.42064658 0.9730047 -0.79217434 -0.06499397 -0.3165014 -0.747784 0.5077699 -0.7780191 0.383133 1.4703122 0.94769853 0.36578745 1.2918439 -0.20000479 -0.021416295 -0.5934474 -0.034193635 -0.68845606 0.5815329 0.43842453 -0.1500529 0.33434612 0.02737383 -1.0314438 -0.027202161 0.38547778 -0.09364747 -0.23919225 0.5872509 -0.033566553 0.9298175 0.2199098 0.5291486 -0.021016723 -0.8315531 0.4642254 -0.41564026 -0.45636246 -0.675558 -0.786323 -1.0241463 -0.17568909 -0.30604216 0.6638989 -0.310251 -0.2021627 0.19384412 0.055856194 -0.32358024 -0.28070414 -0.40521774 0.26706284 -0.43284485 0.24245617 -0.09509081 -1.1092999 0.20978086 0.4278853 0.8178998 -0.05873309 0.17632589 0.47164696 0.029724225 -0.11887003 0.18036774 0.53225285 -0.03267928 0.6906892 0.19204529 -0.27792457 0.3044029 -0.75799817 -0.5925921 -0.59008986 0.034488555 0.8855079 -0.4783829 0.3496899 0.14481533 0.29700133 -0.0910579 0.55641466 -1.4458297 0.568804 0.4312602 -0.20736243 -0.7595468 -0.12075044 -0.19620891 0.034725763 0.65820116 -0.5406977 0.37523812 -0.5005773 -0.72503954 -0.6166947 0.15991634 -0.9781394 1.1775645 -0.18071362 0.15374383 -0.47729784 -1.0136244 -0.68105054 -0.40015584 -0.01873966 -0.3557806 -0.6345052 -0.59766144 -0.49894974 0.07740384
social_event 0.09389467 -1.2746253 0.9446371 -0.37434906 0.21402693 -0.4539601 0.21269746 -0.60487765 -0.5521374 0.2362336 0.22083591 -0.38888374 -0.5178063 -0.67268723 0.5272788 0.5211626 -0.15000972 0.6693104 -0.04341617 -0.3915271 -0.7943186 0.05436826 0.24507445 0.36562762 -0.09261997 -0.05333153 0.5265517 -0.31275138 -0.092153154 -0.60750407 0.1895432 0.4311037 0.4998314 0.4251261 -0.8864318 0.3652583 -0.51835847 0.67207044 0.73535097 -0.9054074 -0.0011215056 -0.08115728 -0.9020414 -0.5671027 -0.81244475 0.43725133 -0.067781344 -0.62377936 0.12084066 -0.24269484 0.12736492 -0.24627334 -0.4932415 -0.5378781 -0.05299092 1.099911 0.12380241 -0.4028235 0.7426604 -0.1652305 0.57314515 -0.45544177 0.12866867 -0.353342 -1.2563013 -0.6932245 -1.0343667 -0.51588285 -0.63588375 -0.57145584 0.22937027 -0.0420976 -0.21202709 -1.2702647 0.3372386 0.22818422 -0.28259358 1.0935233 -0.65698975 -1.159015 -1.5770649 -0.23354138 -0.44559324 -1.0281224 0.7007049 0.1997446 0.05600616 0.048137464 -0.18449512 0.1512516 -0.78763366 -0.2657822 0.32901606 0.23972988 -0.2015949 -0.6802118 0.8903028 0.81940055 0.09798268 0.20871067 -1.2514004 0.07971805 0.11060374 -0.13879761 0.46990713 1.5249656 -0.50115633 -0.15309584 -0.56351244 -0.119584136 0.6905156 -0.44042432 0.9251903 -0.50243217 -0.007166829 0.8427982 0.2925575 -0.5820841 0.36589453 0.6114274 0.38782728 -0.20108703 -0.15049931 0.40545586 -0.3218621 0.42186606 -1.0669831 -1.226034 -1.0702904 -0.22229834 -0.20897582 -0.77080005 -0.8634592 -0.2205103 -0.08513621 0.047622304 0.609556 -1.2796013 0.58891124 0.59244955 -0.28623968 -0.4306897 -0.6229062 0.51561606 -0.2630579 0.34500957 -0.29846403 -0.6715249 -0.6147861 -0.94322175 -0.66417915 0.22523418 0.36084548 -0.80190116 -0.46060312 -0.6056762 0.09973596 0.2854305 -0.102836594 0.74143714 0.83709604 -0.9455718 -0.5881325 -0.45026064 -0.36365774 0.23983195 -0.23919807 0.112058766 0.82108015 -0.7671578 -0.408556 -0.42589873 0.32844648 -0.18996139 0.03215339 -0.42219418 0.6861343 0.5779185 -0.5055429 0.21204318 -0.757063 -0.17405334 -0.80904543 0.20671768 0.04747838 1.7133663 -0.032636613 0.20559928 0.3900999 0.13941178 -1.1826804 -0.60598516 -0.1854038 0.24593264 -0.3602811 -0.92989993 0.16989154 0.35770956 0.35643226 0.5882699
tutorial -0.04657337 -1.4589401 0.3155309 0.35558096 0.81341326 0.46617296 -0.3817088 -0.623647 -1.2647486 0.91436654 0.56771433 -1.995416 -0.062183134 0.10800171 0.43028504 0.6106315 -0.7530413 -0.31694436 0.19130917 0.90137 -0.549813 -0.8721763 0.64525545 0.43476483 0.35313085 1.0816299 -0.14921059 -0.32730386 -0.48049036 -0.12422565 -0.8247703 0.41087398 0.37800276 0.44471663 -0.050501775 0.6976271 0.43294743 0.40484676 1.2520598 -0.6722052 0.6148147 0.7425683 -0.66539997 0.4504993 1.3042696 -0.044638947 -0.19532737 -0.7797623 -0.075928785 0.32068667 -0.5153421 0.4873686 -1.4342788 -0.74732 -1.962538 0.40714896 0.30424413 0.0869791 0.63411045 -0.2584169 -0.46736178 0.571391 0.75420904 0.2824173 -0.12849447 -0.80872446 -0.39960974 -0.008005696 0.1421923 0.2762782 0.3533278 -0.25754806 0.24936414 0.39914718 -0.06782863 1.0945905 -0.9347045 0.7700143 0.37310797 -0.299103 -0.57840353 0.3176508 -0.31074357 0.29749432 -0.931054 0.03537185 -0.26988757 -0.030958481 0.53269476 -0.31257176 0.3508295 0.47797123 -0.31709054 0.6099618 -0.24289373 0.07345608 -0.49070096 0.01811602 0.35873368 0.7881971 0.5495778 -0.30991516 -0.4015112 0.33596724 0.40992126 0.02683578 -0.86262935 1.1783366 -0.3033119 -0.53725684 0.3859838 0.24565704 0.15608478 -0.19846249 0.2942553 -0.75789255 -0.3804744 -0.27035567 -0.008758387 0.09535525 -0.4603567 0.27232605 0.051920008 0.7236239 -0.044384766 -0.20100413 -0.010960937 0.0662669 0.05627603 0.94507354 0.36943522 -0.34398296 -0.53936327 -0.54170763 -0.65073556 -0.38047656 -0.09293028 -0.032476533 0.5390596 -0.18675771 0.25275356 0.24367751 -0.5956119 -0.310753 0.48745203 0.7607602 0.1576187 -0.2233888 -0.49358547 -0.4303982 0.4740339 -0.32732514 -0.19999075 0.42542368 -0.48671886 0.4041903 -0.6305477 -0.60204303 -0.5178735 -0.16708314 0.17690045 -0.14075632 0.25264302 0.14078929 -0.7202524 0.7958728 -0.27554688 -0.30922216 -0.038391914 -0.09635912 -0.4300342 0.46174407 0.06390997 0.2057951 0.09072631 -0.6554743 -0.10957229 1.0325358 0.62564486 0.30698553 0.640798 0.100149974 0.15798992 -0.14640604 -0.31965226 0.8460814 0.33119223 -0.6040468 0.9211338 0.20627274 0.2659855 0.34682274 0.03355513 -0.70445997 -0.082535796 -0.14771602 0.19382386 -0.07835649 -0.23077838 0.6933541
rejection -0.3517855 -0.9926266 0.18670136 -0.15473081 0.046761718 0.48115936 0.41673958 -0.5934334 -0.46585748 0.44205794 -0.06739374 -0.3041724 0.361448 -0.16651013 0.10351537 0.29434758 -0.10351285 0.2141843 0.4025148 0.11894367 -0.39149016 -0.80429286 -0.19726591 0.40041938 0.108715765 0.2546261 -0.4017216 -0.14675637 0.0050812704 0.12329224 -0.18122287 0.035664197 0.35260442 -0.41414502 -0.039493762 0.5513572 -0.09952492 0.18547241 0.54360485 -0.28554386 0.25471523 0.220273 -0.084433064 -0.006001609 0.2275158 0.47753167 -0.16226357 0.016989639 -0.116826065 0.21460429 -0.13043423 -0.18012749 -0.6030511 0.44735307 -0.34023425 0.10132792 0.05039134 0.11319037 0.5301177 0.19974156 0.21449916 0.23553288 0.7129372 0.28851774 -0.07088228 0.003907115 0.019653715 0.08572807 0.20867695 0.48088357 -0.20034757 0.27684557 -0.5344013 0.7861142 0.038575407 -0.47838205 0.48327464 0.14412507 -0.18772139 -0.07045421 0.32846496 -0.4820387 -0.48799208 -0.34692943 0.47117496 -0.04840606 -0.25668845 0.36550894 -0.21178433 0.21853542 -0.24721722 0.5867517 -0.42797375 -0.040495574 -0.23194873 -0.2636701 -0.65010595 0.2802803 -0.38984632 -0.06045188 -0.05747316 -0.20317587 0.24805085 0.8078305 -0.23404914 -0.18475078 0.16590412 -0.16868638 0.27646652 -0.58415353 -0.05594182 0.2815998 0.43552813 0.31662562 0.4466956 0.28299838 -0.3996087 -0.098064706 0.23289308 0.18782213 0.5240777 0.21951322 -0.10130777 -0.2704179 0.16498065 0.09840158 0.29994825 -0.10276015 -0.42236096 -0.25239635 0.32254055 -0.34246767 -0.1082409 0.69380707 -0.305675 0.18359722 -0.23238342 0.15770791 0.0033736436 0.31912053 0.076086745 -0.09588262 0.14304739 0.3310162 0.5944391 -0.11467616 0.23934488 0.21622252 0.20782447 -0.065462746 -0.10878193 0.2529267 0.13500549 -0.116077915 -0.23365636 0.25039038 0.61842835 0.3088202 0.36364686 0.04122444 0.20411125 0.08915585 -0.011146658 -0.35339642 -0.34231153 -0.5686098 0.16263774 0.1775586 0.4165259 -0.058786202 0.26435205 -0.07789315 -0.41482058 0.23195273 0.022143459 0.40291953 -0.24342772 -0.41752973 0.054166045 -0.20424473 -0.42969036 -0.056964256 0.16921969 0.26607293 -0.5152292 0.023004297 0.0023829844 -0.3446328 -0.52377176 -0.115376584 0.151933 0.07897358 -0.12173536 -0.05972262 -0.12256884 -0.0012038196 -0.16781881 0.2455283 -0.034848873 -0.4354393
